tree
version=v3
num_class=1
num_tree_per_iteration=1
label_index=0
max_feature_idx=29
objective=regression
feature_names=Column_0 Column_1 Column_2 Column_3 Column_4 Column_5 Column_6 Column_7 Column_8 Column_9 Column_10 Column_11 Column_12 Column_13 Column_14 Column_15 Column_16 Column_17 Column_18 Column_19 Column_20 Column_21 Column_22 Column_23 Column_24 Column_25 Column_26 Column_27 Column_28 Column_29
feature_infos=[-3.725484261975196:3.7522331183936752] [-3.7797603135502431:3.3526316789550203] [-3.7369207021128652:3.7784518574214165] [-4.2419714205837664:3.9520210827462487] [-4.1865471501660112:3.340099789919639] [-3.5375039376751456:3.7551699699790175] [-3.9908410052817742:3.865946534291921] [-3.8085613574752442:4.0031891363359575] [-4.1315150891697527:4.1239329763248973] [-4.3383350596248:3.7076343704173849] [-3.8173491481996602:4.0162414537569697] [-3.8691885124237282:4.4234901040396304] [-3.6313429752012079:3.37822753997348] [-3.9809114038653357:3.9555432942887045] [-3.6603333951024122:3.8988160548436728] [-3.8115545425410522:4.0722120891669844] [-3.7219286278790058:3.8146739084338912] [-3.4545717282587267:3.7152055731357891] [-4.505835845106672:3.9168652682936029] [-3.766899201553211:3.7663745880112804] [-3.7369710601370958:4.1854025935167805] [-3.6054252932600726:3.5419714077076683] [-3.5301641932079888:3.7363490097145169] [-3.8331913968456628:4.5351091403672292] [-4.3565955211227942:3.7460591699442833] [-3.8742576010935164:4.0865153381926929] [-3.7206907304679353:3.9724019917908788] [-3.4702805551825691:3.4697805737833085] [-3.6518239474895928:3.4630648854119306] [-4.065647635100972:3.7303912342476724]
tree_sizes=4355 4338 4336 4334 4336 4339 4318 4329 4333 4333 4333 4335 4336 4321 4331 4331 4325 4334 4341 4330 4330 4323 4345 4337 4347 4341 4328 4325 4326 4349 4346 4369 4334 4348 4348 4352 4357 4336 4347 4363 4369 4270 4391 4377 4373 4372 4054 4270 4360 4213 4371 4370 4358 3879 4387 3956 4059 3963 4219 4408 4038 4215 3805 3901 3629 3631 3890 4057 4025 3971 3628 4047 3471 4396 3190 3659 3459 3703 3989 3460 3374 3371 3552 3371 3375 3397 3381 3703 3512 3472 3537 3212 3730 3476 3312 3575 3567 3785 3149 2618

Tree=0
num_leaves=50
num_cat=0
split_feature=17 21 21 17 17 17 17 28 28 28 28 28 21 21 28 28 21 21 21 21 21 28 21 21 21 21 17 21 21 17 28 21 28 17 28 17 17 28 17 28 28 17 21 21 28 21 17 21 21
split_gain=1.14754e+07 3.78349e+06 3.38615e+06 1.22173e+06 1.16478e+06 1.01095e+06 974070 702158 631859 597228 517945 329823 321137 288337 277816 256502 247925 243809 228576 222286 218728 209437 202145 178905 155107 134915 131028 127358 124328 110819 100890 93700.5 78235.9 73104.4 68358.9 64943.8 62073.2 61241.7 61001.7 60084.6 58305.7 57670.3 56812.9 54073.4 54042.9 53523.5 52363.5 50316.5 49298.2
threshold=-0.10868569923815062 -0.01065325206873975 -0.02597721319010254 0.96720511494913997 0.96720511494913997 -0.97339854568633355 -0.91408197458315354 -0.018717791788461381 0.010333051449932089 0.079024811751995563 -0.065584370622127505 -0.085980092796374821 -0.96666999257094577 -0.92028280860523648 0.18881577749544007 0.44498522319081474 -0.93822344366868771 0.91576281271349302 0.87114422927583279 -1.1048097764297058 -1.0278386158813066 0.4340424189018347 0.70059383457585966 0.68857992646792143 -1.3893836335433576 1.005912150341592 -1.6599111949773866 1.25925467081376 0.77219176710380111 1.8135875841520457 1.3195288264631888 1.3163292882230782 -1.0677924916947139 1.4412630250164311 -1.3244232753568359 -1.6001739442494409 -2.0545093266374543 -0.28915736350836502 -1.4671628313886578 1.0944641625918408 1.1377281353431825 1.6853708254092996 -1.6600438028021378 1.5708984760193523 -0.84496002111733126 1.5708984760193523 0.34605645895172477 1.6119238997214187 1.7474947839438146
decision_type=2 2 2 2 2 2 2 2 2 2 2 2 2 2 2 2 2 2 2 2 2 2 2 2 2 2 2 2 2 2 2 2 2 2 2 2 2 2 2 2 2 2 2 2 2 2 2 2 2
left_child=2 4 5 8 7 15 11 13 17 19 23 25 -9 42 27 24 37 32 39 -7 -11 29 46 -8 -1 35 -26 33 38 -18 -14 41 -3 -5 -15 -4 -17 -6 -13 -12 -22 -16 -2 -24 -21 -20 -10 -19 -30
right_child=1 3 6 14 16 9 10 12 22 20 18 28 30 34 31 36 21 47 45 44 40 -23 43 -25 26 -27 -28 -29 48 -31 -32 -33 -34 -35 -36 -37 -38 -39 -40 -41 -42 -43 -44 -45 -46 -47 -48 -49 -50
leaf_value=-7.7218288178350569 -4.3582699468961144 -0.59155367327427855 -5.0645545120564188 2.5234102660782329 -0.91608683148412395 -5.4052753917749294 -2.0364689946884917 -1.3875400007368142 1.5348016418107648 -3.3311265840837763 -0.17471967697978302 -3.0216701030261404 0.38485238875186711 -2.5049234838632057 4.5882877401571029 -6.1583394515044576 1.0115235713718356 1.6751163711760064 1.5298623705890066 -4.0872612322195749 -1.6425145140647266 3.6206876949382236 3.4108642000304701 -0.27137820294438503 -6.7711846880122728 -1.9798882139935676 -4.8732762486094172 5.0956836457887542 -0.80990854199408491 3.1987229134446631 1.9459434645427338 7.2346228348856503 0.70128244671178341 3.9113395059724807 -0.98007505792292959 -3.4068616235063627 -3.4448601701368635 0.74111338650285752 -1.4230840184744333 1.1958563474290487 -0.39964168353781493 6.3620135764750758 -2.7875334572591823 4.8407495821546576 -2.9992863487237491 3.0820654712464748 2.6834488959003249 3.1224603121972252 1.0978227820107618
leaf_weight=95 81 167 90 227 85 198 298 257 195 181 346 100 493 89 194 24 296 199 187 185 319 157 286 277 134 125 283 101 147 72 131 58 391 163 422 172 173 162 148 104 134 60 199 86 298 79 202 86 44
leaf_count=95 81 167 90 227 85 198 298 257 195 181 346 100 493 89 194 24 296 199 187 185 319 157 286 277 134 125 283 101 147 72 131 58 391 163 422 172 173 162 148 104 134 60 199 86 298 79 202 86 44
internal_value=-0.390525 1.25768 -2.32451 2.66125 -0.129237 -3.78678 -0.926485 -0.870942 1.86752 -2.96625 -0.0685949 -2.26733 0.0999467 -1.9523 4.25465 -5.30862 1.47715 0.922054 0.828888 -3.99438 -1.86191 2.09175 2.90397 -1.18616 -5.89853 -3.33146 -5.48316 3.51329 -1.32924 1.43945 0.712581 5.42134 0.314358 3.10349 -1.24566 -3.9763 -3.77544 0.170822 -2.06768 0.142036 -1.27487 5.00728 -3.24193 3.74143 -3.41601 1.99086 2.11925 2.11186 -0.370431
internal_weight=0 4859 4141 2415 2444 2024 2117 1672 1612 1315 1291 826 881 791 803 709 772 843 716 681 634 525 769 575 512 387 417 491 439 368 624 312 558 390 511 262 197 247 248 450 453 254 280 372 483 266 397 285 191
internal_count=9000 4859 4141 2415 2444 2024 2117 1672 1612 1315 1291 826 881 791 803 709 772 843 716 681 634 525 769 575 512 387 417 491 439 368 624 312 558 390 511 262 197 247 248 450 453 254 280 372 483 266 397 285 191
is_linear=0
shrinkage=1


Tree=1
num_leaves=50
num_cat=0
split_feature=17 21 21 17 17 17 17 28 28 28 28 28 28 21 28 21 21 21 21 21 28 21 21 21 21 17 21 17 21 17 21 28 17 17 17 28 21 28 28 28 28 28 17 28 28 21 21 17 21
split_gain=1.03918e+07 3.3397e+06 3.13183e+06 1.09617e+06 1.0439e+06 932521 897363 566603 537778 505681 482593 365003 308370 268015 252136 250472 223246 205512 199382 195473 194505 169167 169086 162630 161825 150908 148116 118763 103271 92007.3 90506.8 78244 76713.7 73075.3 70849 67159.8 66676.4 63755.2 61675.3 61579.5 60982.1 56949.9 55956.5 55501.3 55336.1 54470.3 54156.3 52679.9 52434.3
threshold=0.0096847157687893568 -0.077540382280331319 -0.017798449826184729 -0.91408197458315354 -0.77484612718970636 0.96720511494913997 0.96720511494913997 0.22996549479235834 -0.085980092796374821 0.089390289047726654 0.079024811751995563 0.44498522319081474 0.11928665654479169 -0.92028280860523648 0.089390289047726654 0.87114422927583279 -0.93822344366868771 -1.1895980088414928 0.79181592582248894 0.82411050383017403 -0.30032481739107703 -1.2170564548328906 -1.1048097764297058 -1.349263565758708 0.80278923575997974 -1.6257929849564641 0.66560155421832856 1.6853708254092996 0.78289126150595001 1.7345108589085905 1.4133957389085168 0.83627489778176389 -1.748306903924761 -2.0545093266374543 -1.6599111949773866 -0.95400195349171379 0.67535798406968173 -0.95400195349171379 1.2766444047872445 -0.98361499891864701 1.2332162583265365 -1.0372044301087555 1.3954483575145289 -0.74455455769132983 -0.26148311079128322 1.7942744387839371 1.8557865850347086 1.8594489624639088 1.5708984760193523
decision_type=2 2 2 2 2 2 2 2 2 2 2 2 2 2 2 2 2 2 2 2 2 2 2 2 2 2 2 2 2 2 2 2 2 2 2 2 2 2 2 2 2 2 2 2 2 2 2 2 2
left_child=1 4 6 12 11 9 7 13 19 18 21 23 24 39 27 31 44 -9 35 41 47 -6 -12 -1 32 -25 -11 36 -14 -22 42 -10 -3 -13 -26 -4 -7 -15 -24 -2 -19 -5 -16 -23 -8 -21 -20 -18 -17
right_child=2 3 5 8 10 14 16 17 15 26 22 33 28 37 30 48 20 40 46 45 29 43 38 25 34 -27 -28 -29 -30 -31 -32 -33 -34 -35 -36 -37 -38 -39 -40 -41 -42 -43 -44 -45 -46 -47 -48 -49 -50
leaf_value=-6.5081265307487328 -3.47710410189885 -4.9012328801836285 -0.090517420269166815 -2.1283194828376497 -4.5352127123790185 2.4437642217387818 -0.48162729429594919 -0.91121399332463315 0.13984739307902361 2.5524739962900322 -2.5778823011630294 -5.5450115701426634 -1.4478235598167291 -1.4742823594764098 4.434674245119095 1.9307445626367223 0.84485921587669444 0.9264940648643849 2.1073478209994625 0.11532172216545969 2.6045016588668481 -3.2035957119681622 -0.94081328612461734 -6.0539450905539773 -3.2380182228088383 -4.0967909272184082 4.0725907995093689 4.9694261330218357 0.24438007153073948 4.5009627638922796 7.2957091084233046 1.3746840822786544 -2.9864828305543911 -2.6028021633479512 -1.0665108613225798 1.1863551719341636 3.8611495503618674 -0.2133561416159398 0.48146533469897607 -1.9198286611288786 2.1664228973628807 -0.90532435418711055 5.8087288262187577 -2.0996783472850162 1.0851355326781051 2.0500972184267914 3.9310343782107036 2.9927432971842149 3.3577509523748041
leaf_weight=141 93 70 156 139 157 169 87 137 361 319 148 23 226 134 160 220 178 346 268 210 221 220 343 132 50 388 322 121 150 90 54 199 207 256 151 303 163 398 98 200 139 302 138 236 160 44 48 34 91
leaf_count=141 93 70 156 139 157 169 87 137 361 319 148 23 226 134 160 220 178 346 268 210 221 220 343 132 50 388 322 121 150 90 54 199 207 256 151 303 163 398 98 200 139 302 138 236 160 44 48 34 91
internal_value=0 -1.67576 1.72258 -0.402992 -3.11371 3.04962 0.393143 -0.340665 0.38285 2.27713 -2.13759 -4.36189 -1.84401 -1.19976 4.40843 1.21052 1.77213 0.798816 1.41781 -0.654421 2.35721 -3.11965 -1.11552 -5.002 -2.68668 -4.59361 3.31609 3.6284 -0.772742 3.15332 5.41227 0.578655 -3.47035 -2.84535 -1.60669 0.752385 3.13965 -0.530958 -0.624751 -2.41412 1.28186 -1.2908 5.07098 -2.63227 0.53328 0.45048 2.38436 1.18933 2.34829
internal_weight=0 4562 4438 2420 2142 2221 2217 1447 1566 1416 1202 940 854 825 805 871 770 622 775 695 523 613 589 661 478 520 641 453 376 311 352 560 277 279 201 459 332 532 441 293 485 441 298 456 247 254 316 212 311
internal_count=9000 4562 4438 2420 2142 2221 2217 1447 1566 1416 1202 940 854 825 805 871 770 622 775 695 523 613 589 661 478 520 641 453 376 311 352 560 277 279 201 459 332 532 441 293 485 441 298 456 247 254 316 212 311
is_linear=0
shrinkage=0.05


Tree=2
num_leaves=50
num_cat=0
split_feature=17 21 21 17 17 17 28 17 28 28 28 28 28 21 28 21 21 17 21 21 21 28 21 21 21 21 21 21 28 17 21 28 17 21 28 17 17 28 28 17 17 17 28 28 28 21 17 28 21
split_gain=9.39604e+06 3.18861e+06 2.70352e+06 1.08188e+06 1.0336e+06 946897 555628 553749 485390 460056 346800 333970 309978 303432 278348 225417 177991 169000 168761 163017 161545 143821 132993 127160 126062 117799 115336 114482 108026 106113 93905 89941.6 89812 81088.7 77043.3 76747.4 64133.2 62677.1 60072.7 59684.5 58996.1 58413 56322.9 54489 52203.7 49650.6 48190.9 44082.2 43767.8
threshold=0.082546501720724447 -0.077540382280331319 -0.33020381720409359 -0.91408197458315354 -0.77484612718970636 0.89054057364070627 -0.35283025641403748 0.96720511494913997 0.079024811751995563 0.1014793902721738 -0.10341406027225349 -0.42866238595130607 0.010333051449932089 0.87114422927583279 -0.085980092796374821 0.64371083270253193 0.66560155421832856 -1.6001739442494409 -1.1048097764297058 -1.2170564548328906 0.70059383457585966 -0.15437002084673659 0.61992617709790776 -1.3269618868333612 1.2852966032260482 1.005912150341592 -1.3050792184388034 1.25925467081376 0.83627489778176389 -1.4671628313886578 -1.2579010123961507 0.65830321497439737 1.3954483575145289 -0.64996940509342405 0.65830321497439737 1.6853708254092996 1.6853708254092996 1.3029280577865685 -0.62286283650416785 1.6853708254092996 1.7345108589085905 -1.6992786810974467 0.97050360396420643 -0.98361499891864701 1.0374759749276317 -0.89292037310462669 -1.7855142149060546 -0.70881359646173425 1.4953842068092034
decision_type=2 2 2 2 2 2 2 2 2 2 2 2 2 2 2 2 2 2 2 2 2 2 2 2 2 2 2 2 2 2 2 2 2 2 2 2 2 2 2 2 2 2 2 2 2 2 2 2 2
left_child=1 4 7 14 11 9 22 10 19 15 26 33 20 28 25 47 44 45 -10 -6 35 40 -5 -12 32 41 -2 29 -8 -16 -23 -19 -14 -1 -15 -7 -32 -20 -21 -22 -9 -3 -25 -17 -11 -13 -35 -4 -24
right_child=2 3 5 6 8 12 13 21 18 16 23 17 24 34 27 43 -18 31 37 38 39 30 48 42 -26 -27 -28 -29 -30 -31 36 -33 -34 46 -36 -37 -38 -39 -40 -41 -42 -43 -44 -45 -46 -47 -48 -49 -50
leaf_value=-6.1453467945476161 -2.9916103957063065 -4.4647499034279274 -0.15787058059199185 -1.5493355041450243 -4.2519936987932994 1.9244833933763179 0.052801364717763748 0.0025842626531099536 -2.3998435801267628 1.7944248782361258 -1.185618768840051 -5.9484971761703491 3.7728258358613225 1.6415923981327314 -2.4120795785491147 1.1629721076201613 3.8577970390462699 -3.5042741580885286 -0.82984878142569363 -2.9634776597533281 3.5776369950350593 0.68862279059087983 -0.35919106334496664 0.26032075524330139 6.4896168858171954 -1.4348541556954384 -1.1738475318358683 0.70652565409460766 1.3890322839995044 -0.64059133869819507 2.050013719983848 -2.0484750422009501 5.2140945123589564 -6.4425437785961011 3.0658312710884372 3.6376455361815712 3.9237350221664187 0.54129981197869392 -1.8634811096771835 5.4119126065572107 1.7636567392992597 -2.837478486103798 1.5229040049482139 2.5325928184179078 2.9394498460611724 -4.1429589961437472 -4.0913112218401073 0.81141700536228611 1.1680222459326861
leaf_weight=182 118 76 204 301 170 263 494 194 160 272 122 64 262 253 134 107 267 294 377 271 170 94 229 285 83 125 335 89 218 229 166 166 184 27 152 87 63 107 229 60 63 201 128 226 157 94 113 276 59
leaf_count=182 118 76 204 301 170 263 494 194 160 272 122 64 262 253 134 107 267 294 377 271 170 94 229 285 83 125 335 89 218 229 166 166 184 27 152 87 63 107 229 60 63 201 128 226 157 94 113 276 59
internal_value=0 -1.50649 1.73251 -0.299029 -2.87789 2.71589 0.428213 0.0906049 -1.97229 1.9007 -0.629323 -4.14379 3.8251 1.08346 -1.75181 1.09293 2.84427 -3.4635 -0.992095 -2.91445 3.02677 1.31697 -0.814417 0.232668 4.7004 -2.70898 -1.64735 -0.900516 0.461928 -1.29453 2.01928 -2.97892 4.36743 -5.44944 2.17612 2.35033 2.56549 -0.526723 -2.45968 4.05614 0.434287 -3.28395 0.65163 2.0925 2.21347 -4.87432 -4.54476 0.39947 -0.0463244
internal_weight=0 4814 4186 2560 2254 2618 1706 1568 1314 1509 988 940 1109 1117 854 813 696 618 644 670 580 580 589 535 529 402 453 452 712 363 323 460 446 322 405 350 229 484 500 230 257 277 413 333 429 158 140 480 288
internal_count=9000 4814 4186 2560 2254 2618 1706 1568 1314 1509 988 940 1109 1117 854 813 696 618 644 670 580 580 589 535 529 402 453 452 712 363 323 460 446 322 405 350 229 484 500 230 257 277 413 333 429 158 140 480 288
is_linear=0
shrinkage=0.05


Tree=3
num_leaves=50
num_cat=0
split_feature=17 21 21 17 17 17 17 28 28 28 28 28 21 28 28 21 21 28 17 21 21 21 21 21 21 17 21 21 21 21 28 21 21 28 28 17 21 17 21 28 28 28 28 17 21 17 21 28 17
split_gain=8.52136e+06 2.81344e+06 2.49522e+06 893052 889132 757493 723391 469854 454109 443611 394615 303052 228876 210570 210506 194901 194659 176827 176499 169780 169622 168317 161774 159419 159025 110783 101778 98389.1 82760 76950.5 69826.4 69778.6 67250.2 65380.3 59315.8 58137 57612.5 56868.4 55236.1 51516.8 50737 47038.3 46509.3 46164.3 43957.8 43236.8 43132.8 42905.6 42623.4
threshold=-0.10868569923815062 -0.01065325206873975 -0.02597721319010254 0.96720511494913997 0.58481504016388786 -0.99000128298468837 -1.1470095835389646 -0.095059644026224313 -0.085980092796374821 0.038041841855942719 -0.054205934627004862 -0.57278534646996349 -1.2416733828510822 0.18881577749544007 -0.41668682678905511 -0.96666999257094577 1.0679869494710303 0.14531586902941765 1.6853708254092996 -0.89292037310462669 -1.0278386158813066 0.91576281271349302 0.70059383457585966 0.68857992646792143 -1.1476381807128477 -1.8842423902272658 1.2131060186653542 1.2131060186653542 -0.63874285912592066 -1.0063854227530233 1.0773347403753097 1.3163292882230782 1.7474947839438146 0.95281203053826735 -0.5883135392487534 0.25083635222140394 -0.48184678260733205 -1.8842423902272658 1.5303038759998053 -1.1955060464312901 0.75543857074995968 1.1377281353431825 -1.14455388085807 1.7345108589085905 1.7942744387839371 1.5491347916374665 -1.6600438028021378 -1.5477748345023312 1.5033608487392265
decision_type=2 2 2 2 2 2 2 2 2 2 2 2 2 2 2 2 2 2 2 2 2 2 2 2 2 2 2 2 2 2 2 2 2 2 2 2 2 2 2 2 2 2 2 2 2 2 2 2 2
left_child=2 4 5 7 10 14 17 21 23 19 24 28 45 26 36 -12 30 27 -14 46 -11 35 40 42 -2 -16 34 37 -6 -27 -10 43 -19 -17 -5 -3 -1 -4 -24 -26 -9 -22 -8 -15 -25 -13 -7 -21 -30
right_child=1 3 6 13 11 9 8 22 16 20 15 12 18 31 25 33 -18 32 -20 47 41 -23 38 44 39 29 -28 -29 48 -31 -32 -33 -34 -35 -36 -37 -38 -39 -40 -41 -42 -43 -44 -45 -46 -47 -48 -49 -50
leaf_value=-6.0120257083724882 -3.1732080516680869 -0.10081624144358217 -4.49720675984367 2.2724296890504179 -0.85781055272145323 -5.1529199187820023 -2.493585394666745 1.6107444798756152 0.12969385395748254 -2.560236962107902 -1.2770460106347317 -0.29836681253493652 1.7003155937353214 4.3010989656448366 -5.2694747175489161 0.1852815279333862 2.0999784272275073 -1.2230957540803487 3.7675278073265441 -3.8313428464925519 -1.1004424534738064 2.1060257036267345 3.1636148026447426 -0.2744345349440579 -2.2307580617009379 -4.2885182894644194 4.7031653156986941 -1.2105017576973107 0.19333680437877776 -2.7567350761234763 1.4116858656956432 6.5734636372533348 1.3753085173666477 1.4194454033831683 3.5240957377091897 0.98011896941502386 -4.3669582438468941 -2.7511524565292129 4.5194008731842041 -0.91610048067219962 2.7048053687100584 0.0098977907491264068 -1.2300572920054076 5.9486090200918689 1.5386465769065056 1.5055521565814352 -3.7212514625800837 -2.3094626308137132 1.8781288128632767
leaf_weight=159 142 206 61 171 172 74 104 235 485 188 186 146 572 200 84 291 235 225 126 53 331 262 302 278 98 122 108 86 135 250 136 58 28 170 212 314 80 198 100 311 193 134 243 54 38 43 182 367 52
leaf_count=159 142 206 61 171 172 74 104 235 485 188 186 146 572 200 84 291 235 225 126 53 331 262 302 278 98 122 108 86 135 250 136 58 28 170 212 314 80 198 100 311 193 134 243 54 38 43 182 367 52
internal_value=0 1.42031 -1.66657 2.63065 0.224329 -2.92181 -0.466473 1.95203 0.113446 -2.22232 -0.748268 1.15946 1.65554 3.99295 -4.25941 0.0891686 0.874282 -1.93955 2.07348 -3.12014 -1.29287 1.07259 2.78061 -0.86887 -1.73161 -3.62943 3.34753 -2.67583 -0.0662402 -3.25909 0.410452 5.00867 -0.935525 0.640396 2.96526 0.551902 -5.46138 -3.16239 3.50088 -1.2311 2.10409 -0.780473 -1.60875 4.65136 -0.0564058 0.112049 -4.13509 -2.50151 0.661835
internal_weight=0 4859 4141 2415 2444 2024 2117 1612 1519 1329 1198 1246 887 803 695 647 856 598 698 676 653 782 830 663 551 456 491 345 359 372 621 312 253 461 383 520 239 259 402 409 428 465 347 254 316 189 256 420 187
internal_count=9000 4859 4141 2415 2444 2024 2117 1612 1519 1329 1198 1246 887 803 695 647 856 598 698 676 653 782 830 663 551 456 491 345 359 372 621 312 253 461 383 520 239 259 402 409 428 465 347 254 316 189 256 420 187
is_linear=0
shrinkage=0.05


Tree=4
num_leaves=50
num_cat=0
split_feature=17 21 21 17 17 28 17 28 28 17 28 28 21 21 21 28 21 17 21 21 17 28 21 21 21 21 28 21 28 28 21 17 28 28 17 17 21 17 17 21 21 28 17 21 28 28 17 21 28
split_gain=7.69449e+06 2.64089e+06 2.16766e+06 986767 776356 626626 610107 432238 422916 394456 370955 322094 245790 221884 221663 201473 200533 182086 166944 153937 135140 134984 130535 113845 94938.3 94722.8 94182 93521.9 78420.4 77557.6 76862.8 72365.4 68546.8 65235.8 62014.7 58204.6 57828.7 55443.9 55434.6 53520.8 51274.2 47652.4 46321.4 46009.5 43385 42828.4 35090.9 34220.7 32989.3
threshold=-0.16215012134252674 0.14831752972341403 -0.02597721319010254 0.60029490296192811 0.89054057364070627 0.44498522319081474 -1.3038475773180664 -0.24201716917538388 -0.18255434910512328 -1.2376360110851985 0.25329688153976082 -0.32355263913934745 -1.0278386158813066 -0.96666999257094577 -0.90695705584586084 0.079024811751995563 0.82411050383017403 -1.1674415675691823 -0.8321852918908258 1.1937622202567431 1.2894869498138555 0.25329688153976082 0.83888086252226834 -0.63874285912592066 1.337686850031625 -0.9911066042571226 0.82266747895345083 1.5708984760193523 -0.64500916184740242 -0.87069901312744269 -0.47065886486244374 -2.0545093266374543 -1.0848983458089327 -0.45598718046832537 1.4157885283276201 1.5491347916374665 1.4953842068092034 1.4412630250164311 -0.60759428469622134 1.0679869494710303 1.7474947839438146 -1.6579616013098919 0.45460729918762682 -1.6600438028021378 -1.0848983458089327 -1.2664138932676547 1.6853708254092996 1.5708984760193523 1.0374759749276317
decision_type=2 2 2 2 2 2 2 2 2 2 2 2 2 2 2 2 2 2 2 2 2 2 2 2 2 2 2 2 2 2 2 2 2 2 2 2 2 2 2 2 2 2 2 2 2 2 2 2 2
left_child=2 3 5 7 10 9 21 18 22 30 19 23 33 43 35 27 38 -7 -2 29 -16 31 41 46 42 -19 -15 32 -14 -3 44 -4 -6 -11 48 -13 -18 -25 -10 -33 -23 -8 -12 -9 -1 -21 -5 -24 -17
right_child=1 4 6 11 15 17 8 13 16 12 24 14 28 26 20 34 36 25 -20 45 -22 40 47 37 -26 -27 -28 -29 -30 -31 -32 39 -34 -35 -36 -37 -38 -39 -40 -41 -42 -43 -44 -45 -46 -47 -48 -49 -50
leaf_value=-6.8234357062806481 -2.8153132880468505 0.081446570021755718 -4.2844204123814897 -0.90798048634532391 1.8218659886216697 -3.0526537010544228 -3.1320901140253596 -2.1609997758920167 -0.42188137082134686 -4.8659244394626748 2.200623803600473 0.2170169695481366 -3.0480443497423857 0.076450989874637262 1.8213395191521586 3.7650532349006278 1.1210698995973887 -2.1365358045403386 -1.0467677580438985 0.97865974396467215 3.4086631420210667 -1.2921221470032391 -0.49970597580075266 0.44154887630081757 4.250251678391999 -0.58781369163160346 1.3181568731680331 5.0810492727491594 -1.922507264211734 1.2349007846621265 -3.9218838560965752 -2.8140424341486217 3.2785949990100662 -3.4275911751915431 5.5605597071404009 1.9452844846993687 2.4724856274024303 1.9667571426857089 0.57055118832385765 -1.1556866476202712 1.3479898276783171 -1.4284496546251539 3.2391535626836574 -0.71744140591842454 -5.1154967940255496 2.8078576642274857 0.84194206604186239 0.86731024303984272 5.1164718974720351
leaf_weight=47 211 216 60 182 113 152 47 87 300 147 304 204 265 411 395 143 254 142 363 40 203 148 175 205 102 324 243 54 372 448 124 171 283 170 137 64 115 84 265 68 21 324 166 151 178 160 34 62 66
leaf_count=47 211 216 60 182 113 152 47 87 300 147 304 204 265 411 395 143 254 142 363 40 203 148 175 205 102 324 243 54 372 448 124 171 283 170 137 64 115 84 265 68 21 324 166 151 178 160 34 62 66
internal_value=0 1.28745 -1.66015 0.275164 2.57411 -2.86117 -0.512319 -0.626613 -0.0324137 -3.48308 1.87984 1.23943 -2.9569 0.0620996 1.82466 3.8266 0.635674 -1.54991 -1.69688 1.22596 2.36018 -2.09355 -1.05872 0.235839 2.86751 -1.05974 0.537819 3.12909 -2.39074 0.859681 -4.92141 -2.73195 2.86291 -4.09458 4.73378 0.629738 1.54224 0.884862 0.0435958 -2.34221 -0.964061 -1.64427 2.56742 -1.24513 -5.47227 2.44202 -0.63253 -0.14209 4.19182
internal_weight=0 5069 3931 2837 2232 1921 2010 1466 1542 1303 1436 1371 954 892 866 796 934 618 574 864 598 468 608 505 572 466 654 450 637 664 349 299 396 317 346 268 369 289 565 239 169 371 470 238 225 200 216 237 209
internal_count=9000 5069 3931 2837 2232 1921 2010 1466 1542 1303 1436 1371 954 892 866 796 934 618 574 864 598 468 608 505 572 466 654 450 637 664 349 299 396 317 346 268 369 289 565 239 169 371 470 238 225 200 216 237 209
is_linear=0
shrinkage=0.05


Tree=5
num_leaves=50
num_cat=0
split_feature=17 21 21 17 17 17 28 28 17 28 21 28 28 28 21 21 21 28 21 21 28 28 21 21 21 21 28 21 21 28 17 17 21 17 17 28 21 28 28 21 28 28 21 28 21 17 28 17 28
split_gain=6.98478e+06 2.57139e+06 1.81725e+06 1.05187e+06 722133 629176 544622 410230 339971 323193 305120 255710 253365 227285 205835 187420 183785 149613 146230 129340 104241 100137 99955.1 96156.7 94029.7 89972.5 84211.3 78045.6 75700.2 73108.2 72467.8 66204.3 61031.5 58002.5 55572.2 52829.5 49995.7 49932.9 45070.7 44305.5 43001.7 39800.2 37572.9 37375.2 36366 34348.7 33975.9 33695 33656.8
threshold=0.17894780124557233 -0.29159571798914047 -0.33855486396151407 -0.88978722539041488 -0.7616371008832582 1.2510040154540409 -0.26148311079128322 -0.19117734640619846 1.2510040154540409 -0.25275598761722146 0.76106887631396491 -0.10341406027225349 0.13765418780176072 0.44498522319081474 0.66560155421832856 0.61992617709790776 0.6544414852187207 -0.065584370622127505 0.61992617709790776 -1.1048097764297058 -0.98361499891864701 0.70372205909030949 0.78289126150595001 -1.3050792184388034 -1.1048097764297058 0.74873698734351468 -0.64500916184740242 -1.6600438028021378 1.4953842068092034 0.75543857074995968 -1.5358480845068423 -1.6257929849564641 0.80278923575997974 -1.6001739442494409 -1.5358480845068423 0.87931627918594402 -1.1048097764297058 1.1550990135580037 0.95281203053826735 1.7474947839438146 -0.95400195349171379 -1.4309171688967075 -2.0069000722495263 -1.14455388085807 -1.349263565758708 1.7764905468211893 0.75543857074995968 1.8594489624639088 -1.4309171688967075
decision_type=2 2 2 2 2 2 2 2 2 2 2 2 2 2 2 2 2 2 2 2 2 2 2 2 2 2 2 2 2 2 2 2 2 2 2 2 2 2 2 2 2 2 2 2 2 2 2 2 2
left_child=1 4 8 12 13 7 15 16 11 27 21 23 18 20 29 40 43 25 31 42 -1 -8 34 -2 -13 47 -10 -6 -12 -9 -22 -3 45 -20 -14 -21 -28 -16 -26 -17 -5 -18 -11 -4 -15 -19 -38 -7 -25
right_child=2 3 5 6 9 17 10 14 26 19 28 24 22 44 37 39 41 32 33 35 30 -23 -24 48 38 -27 36 -29 -30 -31 -32 -33 -34 -35 -36 -37 46 -39 -40 -41 -42 -43 -44 -45 -46 -47 -48 -49 -50
leaf_value=-5.5739686211874329 -2.3283573265903255 -4.2001118477810637 -0.25404801809423566 -1.9072816579955294 -4.4886508820548894 2.0114746220359527 -0.082541810423356621 1.6406560862985575 0.29654336223999661 -3.5373230171203618 1.5264078516524198 -0.43643897274256355 -2.2701993596274406 -3.8243728823778107 3.2394315716457052 -0.055024948194363391 0.89655397905787426 3.6451318304879323 -2.6479732894011447 -1.084494276432914 -4.9709624740600589 1.0279625547384972 0.27747876903490176 -1.8660151623330028 0.52483392587959998 4.1654853719525633 1.0947008357894037 -2.5984304059133301 2.8900358295399848 2.7363041925240328 -3.5441953004756792 -2.5921328492331925 5.6176145101330945 -1.0026773317649809 -0.79162361067026232 0.01010069355710283 2.061261680302295 4.630234978838665 1.6777893169295219 1.5717578793058591 -0.93765845490992794 2.2575251716529312 -1.850521618269739 0.74150663849929899 -2.1847079424969276 4.9769712551220051 3.633196228027344 3.4514099887439182 -0.50287954107981025
leaf_weight=129 121 89 134 206 63 148 506 387 99 40 336 199 96 41 303 287 67 140 74 317 125 339 158 53 259 113 93 410 146 251 309 228 97 194 188 169 110 82 126 49 257 271 189 318 193 74 50 56 311
leaf_count=129 121 89 134 206 63 148 506 387 99 40 336 199 96 41 303 287 67 140 74 317 125 339 158 53 259 113 93 410 146 251 309 228 97 194 188 169 110 82 126 49 257 271 189 318 193 74 50 56 311
internal_value=0 -1.20763 1.60663 -0.320118 -2.61737 2.43416 0.314618 1.96171 0.185095 -1.83625 0.935593 -0.258694 -1.63409 -3.7817 2.62265 -0.716714 1.10584 3.79809 -2.31673 -1.16548 -4.32605 0.362974 -0.730594 -1.10727 0.446031 3.03368 1.53285 -2.85019 1.93946 2.0717 -3.95513 -3.04358 4.57724 -1.45698 -1.29142 -0.703864 2.01662 3.53565 0.902165 0.182214 -1.36907 1.98775 -2.14516 0.446364 -2.472 4.10567 2.55249 2.40675 -0.701358
internal_weight=0 5138 3862 3153 1985 2441 2126 1813 1421 1188 1327 1069 1027 797 1023 799 790 628 585 715 563 845 442 485 584 317 352 473 482 638 434 317 311 268 284 486 253 385 385 336 463 338 229 452 234 214 160 204 364
internal_count=9000 5138 3862 3153 1985 2441 2126 1813 1421 1188 1327 1069 1027 797 1023 799 790 628 585 715 563 845 442 485 584 317 352 473 482 638 434 317 311 268 284 486 253 385 385 336 463 338 229 452 234 214 160 204 364
is_linear=0
shrinkage=0.05


Tree=6
num_leaves=50
num_cat=0
split_feature=17 21 21 17 17 28 28 21 28 28 17 17 17 28 21 28 21 21 21 21 17 28 17 21 21 17 21 28 21 28 21 21 28 17 28 28 28 21 21 28 28 17 21 28 28 17 28 17 21
split_gain=6.33197e+06 2.25039e+06 1.76951e+06 859449 662766 545030 440567 372751 313311 273000 262432 254941 246901 236157 206142 167616 164861 155612 140006 131363 111042 109058 106724 96565.8 82012 76779.8 72685.8 68603.8 68467.9 66248.7 63822.5 60730.8 59331.5 58971.2 54835.3 51432.7 50430 50163.2 46992.1 45821.9 43392.6 43378.3 42294 40165.9 39910.9 38345.4 35840.9 30786.5 28504.2
threshold=-0.20290131081128676 0.14831752972341403 -0.22484914489695945 0.58481504016388786 0.89054057364070627 0.051409330528529119 0.44498522319081474 -0.89292037310462669 0.25329688153976082 -0.57278534646996349 -1.2860766934592693 -1.2376360110851985 -1.124343392200243 0.12680730613518529 -0.63874285912592066 -0.47839456855291945 1.039655596921554 0.87114422927583279 -1.5140249165615118 1.1937622202567431 -1.1069213717433783 -0.25275598761722146 1.5859328755790949 1.4630254540261294 1.337686850031625 1.5491347916374665 1.25925467081376 -0.73222120631539489 -0.70265365603970931 -1.0677924916947139 1.1194804201562145 1.3609194895506012 0.69175120259476408 -1.8842423902272658 -0.90540482860789906 -1.208470360345326 1.3616137360256124 -1.4147944158950421 -0.74347963798805727 -1.0500200418190362 1.5739410931682218 -1.8842423902272658 -1.6600438028021378 1.1550990135580037 1.1377281353431825 1.5033608487392265 -1.2664138932676547 1.5248191691299595 1.8557865850347086
decision_type=2 2 2 2 2 2 2 2 2 2 2 2 2 2 2 2 2 2 2 2 2 2 2 2 2 2 2 2 2 2 2 2 2 2 2 2 2 2 2 2 2 2 2 2 2 2 2 2 2
left_child=2 3 6 7 8 10 11 21 19 28 31 37 26 35 25 30 27 40 -13 29 -8 -2 -16 32 44 -11 33 -12 -5 -3 47 39 -17 -7 -20 -9 -15 -1 -22 -4 -14 -39 -23 -19 -10 -30 -21 -6 -18
right_child=1 4 5 9 15 12 20 13 24 14 16 18 17 36 22 23 48 43 34 46 38 42 -24 -25 -26 -27 -28 -29 45 -31 -32 -33 -34 -35 -36 -37 -38 41 -40 -41 -42 -43 -44 -45 -46 -47 -48 -49 -50
leaf_value=-5.9561738749019435 -2.6432514448071003 -0.084019778272664616 -3.9837128892729554 -0.8094685412967092 1.4012246712780836 -2.8679657367559579 -2.7831079630624682 -1.7423742172487995 1.9879140902150629 0.4145940840196593 -1.9449077448301146 -4.3439928580974714 -0.030292587348447544 0.4366570873148925 1.8532897449488943 3.3281980891212779 -0.055311058193098672 1.3008610346515455 -3.3889756293523883 0.87528355775809874 -1.6820108439519768 -2.0077220932642619 3.5752895388686867 5.6536742906312689 3.8527619875394379 1.9566995726312912 0.56888490701715155 -0.89523367369737561 0.16511862945769518 1.0468858182998104 3.5708505607513064 -0.99098145246505753 4.5509170081880361 -0.99071442513839814 -2.3306910840740751 -0.54898344670950272 1.644860084205866 -5.4407151090181793 -0.52813829802680856 -2.5342512535100639 1.390782101867629 -3.9182917623462794 -0.69080273045631002 2.774588983567035 2.9500994178819364 1.6298776658841723 2.5260997476347957 2.7856136614276519 1.383967994049538
leaf_weight=61 201 173 79 157 114 52 147 114 326 349 285 145 450 402 427 319 172 191 168 41 191 90 114 74 104 105 60 343 175 515 83 45 144 214 451 434 110 65 164 176 61 167 189 61 161 60 166 62 43
leaf_count=61 201 173 79 157 114 52 147 114 326 349 285 145 450 402 427 319 172 191 168 41 191 90 114 74 104 105 60 343 175 515 83 45 144 214 451 434 110 65 164 176 61 167 189 61 161 60 166 62 43
internal_value=0 1.1314 -1.5546 0.213774 2.3084 -0.65179 -2.84714 -0.59933 1.68475 1.11657 -1.41444 -3.42639 0.148674 -0.0758667 1.55687 3.47265 -0.962475 0.640787 -2.94551 1.09478 -1.62748 -1.75531 2.21615 3.97653 2.5782 0.771248 -1.00311 -1.3716 -0.00101567 0.762516 2.42791 -2.68445 3.70848 -1.3577 -2.61792 -0.797244 0.696232 -4.6803 -1.14895 -2.9833 0.139346 -4.34483 -1.11562 1.6576 2.30601 0.5391 2.19913 1.88891 0.232545
internal_weight=0 5209 3791 2927 2282 2232 1559 1540 1486 1387 1143 1057 1089 1060 995 796 843 763 764 895 502 480 541 537 591 454 326 628 392 688 259 300 463 266 619 548 512 293 355 255 511 232 279 252 487 235 207 176 215
internal_count=9000 5209 3791 2927 2282 2232 1559 1540 1486 1387 1143 1057 1089 1060 995 796 843 763 764 895 502 480 541 537 591 454 326 628 392 688 259 300 463 266 619 548 512 293 355 255 511 232 279 252 487 235 207 176 215
is_linear=0
shrinkage=0.05


Tree=7
num_leaves=50
num_cat=0
split_feature=17 21 21 17 17 28 17 28 28 28 28 21 28 21 21 21 17 21 21 17 28 21 17 21 21 17 28 28 21 21 21 28 17 21 21 21 28 21 17 17 17 28 21 28 28 21 21 28 17
split_gain=5.7576e+06 2.25441e+06 1.37358e+06 987225 673598 449948 417131 307361 300620 287811 241624 217490 193963 178016 162752 159371 133838 124393 114905 113612 106569 99110.9 93063.5 89439.5 84420.4 78916.1 77075.4 73615.8 71525.7 66147.3 62944.1 60700 59698.9 51972.1 48987 46550.4 45202 42488.5 41422.4 40997.1 38745.5 36011.3 34232.9 33615.3 29793 29226.1 28194.3 26988.4 25081.3
threshold=0.29295051342179534 -0.29159571798914047 -0.33855486396151407 -0.69943331880315818 -0.7616371008832582 0.21973426210849914 1.3188784613728015 -0.51930815980570588 0.3507390071674002 0.30933056849487411 0.062566601496658603 0.57214467769443855 -0.42866238595130607 0.70059383457585966 0.68857992646792143 0.76106887631396491 1.1411867855027349 -1.2806764160301343 1.1937622202567431 1.4701691841505113 -0.28915736350836502 0.63136657051872092 -1.6599111949773866 0.42423164283999854 -1.5827957164243383 -1.6001739442494409 -0.70881359646173425 0.75543857074995968 -1.1692277595953884 -1.0063854227530233 1.4953842068092034 -0.64500916184740242 -1.8370666735639971 -1.3269618868333612 1.5708984760193523 1.4953842068092034 1.0013783601850685 -1.4147944158950421 -1.5358480845068423 -1.5358480845068423 -1.8842423902272658 1.3379648953542951 -1.2806764160301343 1.2332162583265365 0.87931627918594402 -1.4147944158950421 -1.349263565758708 -0.90540482860789906 2.0493549373114726
decision_type=2 2 2 2 2 2 2 2 2 2 2 2 2 2 2 2 2 2 2 2 2 2 2 2 2 2 2 2 2 2 2 2 2 2 2 2 2 2 2 2 2 2 2 2 2 2 2 2 2
left_child=1 4 10 9 12 11 7 21 17 14 16 26 37 27 25 36 29 47 20 28 -8 -4 45 38 -10 -3 -5 -9 -12 -2 -13 -19 -16 -24 -15 -17 -7 -1 -11 -25 -39 -26 -18 -22 -30 -14 -21 -6 -44
right_child=2 3 6 5 8 15 18 13 24 23 19 30 22 34 32 35 42 31 -20 46 43 -23 33 39 41 -27 -28 -29 44 -31 -32 -33 -34 -35 -36 -37 -38 40 -40 -41 -42 -43 48 -45 -46 -47 -48 -49 -50
leaf_value=-5.5707840401785722 -1.6173604567734043 -3.485663064569235 0.28235967816771385 -1.3974692145300178 -3.9312455690824066 0.45750082405550141 2.2647604900499734 1.595951793909133 -2.1492982781008831 -2.3156315784454349 -0.17254375576333036 0.30990413777995857 -5.8860166168212897 2.9622436454288912 -2.8818008525951488 1.8745995018799027 -0.53977034020423886 -2.4042197605055207 5.0620921116249242 1.1781290328595788 3.5602671427269508 1.7073355474526233 -3.555374127245964 -0.75820147791219983 -0.62969643071028925 -2.0428011269193806 -0.30125985816777956 2.6880381064755579 0.73395602717925024 -0.36436515613260512 1.585314725363447 -1.3756420777669189 -0.75195985225966888 -2.2185854026647376 4.3142559346698581 3.2226664373609761 1.391527028740807 -5.9043038968686705 -0.68785887726858341 0.66296297280490402 -3.8693462219238288 0.42883702707037613 0.67443823656379775 4.9744295193598829 1.6962136751413348 -3.7729378530714253 2.9280622854465395 -2.7845907389322919 2.2590317797660826
leaf_weight=70 178 128 274 269 78 315 181 496 79 50 163 440 20 331 37 222 50 245 102 32 219 220 94 68 332 365 397 224 211 258 124 346 297 321 84 90 220 27 179 200 175 106 149 52 130 90 82 150 30
leaf_count=70 178 128 274 269 78 315 181 496 79 50 163 440 20 331 37 222 50 245 102 32 219 220 94 68 332 365 397 224 211 258 124 346 297 321 84 90 220 27 179 200 175 106 149 52 130 90 82 150 30
internal_value=0 -1.00084 1.59799 -0.201633 -2.27515 0.478511 2.36107 1.95801 -1.58887 -1.26859 0.299631 -0.132181 -3.42555 2.41111 -1.84008 1.36535 -0.361839 -2.18478 3.54625 1.01141 3.20418 0.916964 -2.86411 -0.317653 -0.644869 -2.41742 -0.744023 1.93571 0.688984 -0.875909 0.590314 -1.80204 -0.9879 -2.52138 3.2359 2.26346 0.841586 -4.50922 -1.04327 0.302369 -4.14135 -0.373522 0.616916 3.83162 1.1008 -4.15713 2.43685 -3.17687 0.940013
internal_weight=0 5534 3466 3401 2133 2077 2183 1629 1336 1324 1283 1230 797 1135 827 847 665 819 554 618 452 494 525 497 517 493 666 720 504 436 564 591 334 415 415 312 535 272 229 268 202 438 229 271 341 110 114 228 179
internal_count=9000 5534 3466 3401 2133 2077 2183 1629 1336 1324 1283 1230 797 1135 827 847 665 819 554 618 452 494 525 497 517 493 666 720 504 436 564 591 334 415 415 312 535 272 229 268 202 438 229 271 341 110 114 228 179
is_linear=0
shrinkage=0.05


Tree=8
num_leaves=50
num_cat=0
split_feature=17 21 21 17 17 17 17 28 28 28 28 28 21 21 28 21 28 21 28 21 21 17 21 17 21 17 28 21 17 28 17 21 28 21 28 21 28 21 21 21 28 21 21 21 21 28 28 21 17
split_gain=5.22603e+06 1.78941e+06 1.52483e+06 728018 498124 421110 411783 354110 288740 260812 235124 232474 194155 147927 133225 128738 123612 118911 117124 109378 102592 98934.8 92241.9 79714.4 72347.9 68879.1 67962.5 64520.9 56645.5 56518.6 50568.9 48469.1 47858.4 47533.9 45235.1 44549.1 44527.4 40735.6 40247.3 39912.8 39639.4 38410.5 38117.1 36988.2 35930.4 33239.5 30742.9 29990.2 28153.9
threshold=0.082546501720724447 0.27248448037181122 -0.017798449826184729 -0.82961067762934404 -0.88978722539041488 1.1059825945482331 1.033628551524415 -0.25275598761722146 0.19701344209477509 0.48404947665507403 0.11928665654479169 -0.34067789589237901 -0.82028606565977691 -0.82028606565977691 -0.87069901312744269 -0.96666999257094577 0.18881577749544007 -0.84759236759607892 0.46302547304341729 -1.2579010123961507 1.3893098626966862 -1.6992786810974467 0.73649044357719307 -1.5085968738468167 1.2346082243553471 1.9195455782787871 1.0773347403753097 -1.2806764160301343 -2.1576278750142532 0.6147700845952907 1.9195455782787871 1.4953842068092034 -1.208470360345326 -1.349263565758708 0.89519915479205869 -2.0069000722495263 1.7108688567387278 1.5708984760193523 1.0197482104950508 -1.6600438028021378 -1.4748518661896617 1.25925467081376 -2.0069000722495263 1.8557865850347086 -0.57317613553387026 -1.1067258967535285 -1.0677924916947139 -1.7774280150153181 1.6853708254092996
decision_type=2 2 2 2 2 2 2 2 2 2 2 2 2 2 2 2 2 2 2 2 2 2 2 2 2 2 2 2 2 2 2 2 2 2 2 2 2 2 2 2 2 2 2 2 2 2 2 2 2
left_child=1 3 5 9 14 8 10 17 13 15 22 38 42 35 -3 39 25 47 27 -10 29 -17 46 41 34 32 -14 -7 -11 -13 -29 48 -8 -20 -12 -2 -21 -25 -6 -1 -19 -16 -9 -24 -30 -15 -4 -5 -18
right_child=2 4 6 7 11 18 16 12 19 28 24 20 26 45 23 21 31 40 33 36 -22 -23 43 37 -26 -27 -28 30 44 -31 -32 -33 -34 -35 -36 -37 -38 -39 -40 -41 -42 -43 -44 -45 -46 -47 -48 -49 -50
leaf_value=-5.2989077041023656 -3.2225361771053742 -2.4242749239748989 -0.029850463049175841 -4.2543734105428062 -0.62995700972956903 -0.27883623475096669 1.226848411322504 -3.1667658463502542 -0.61602288469099087 -4.3027334785461431 1.8016973589058525 0.5089297650586716 -0.54049167043432023 -1.00113707036865 -1.8718244771365407 -4.1638541170658954 3.4515227755130327 -2.5860335022795438 0.93174830600619318 0.83641726735191446 2.2879516727953071 -2.5873069275980409 1.5546568850676219 -0.42230950564860487 3.6166094413825443 4.0950793462256865 0.54537886886738052 0.95113686669182818 -2.1564181999336904 1.4770936822226968 2.3941177301681957 5.6881192357916586 2.6850263542425439 2.871619641621908 2.7734898882004821 -1.3580217945130215 2.2763386828000427 1.135608924165064 0.40485941163961076 -3.918015972773234 -1.4792351220079396 -0.3017742488744124 -1.5060717438854794 3.1080244476144969 -1.0768558519316374 0.0050809248790864162 0.91983178294434842 -2.8087884062427584 4.6787500169542104
leaf_weight=76 36 134 120 45 274 83 69 39 130 20 286 382 552 103 147 131 181 102 40 448 166 414 297 292 112 73 195 274 139 249 78 38 305 150 206 291 61 49 143 168 391 53 303 44 173 404 294 177 63
leaf_count=76 36 134 120 45 274 83 69 39 130 20 286 382 552 103 147 131 181 102 40 448 166 414 297 292 112 73 195 274 139 249 78 38 305 150 206 291 61 49 143 168 391 53 303 44 173 404 294 177 63
internal_value=0 -1.12352 1.29208 -1.89821 0.0760294 0.340062 2.24865 -1.27639 -0.121366 -2.89888 1.73438 0.681461 -0.708766 -0.734125 -1.01285 -3.3936 3.20735 -2.14092 1.42756 0.678386 1.18194 -2.96626 1.14614 -0.663257 2.46968 2.69022 -0.257031 0.975194 -1.72317 0.890979 1.27089 4.02708 2.416 2.46323 2.20859 -1.56329 1.00898 -0.198444 -0.275092 -4.34813 -1.70823 -1.45576 -1.69545 1.75509 -1.55781 -0.199338 0.644562 -3.10181 3.76839
internal_weight=0 4814 4186 2925 1889 2098 2088 1804 1473 1121 1359 1214 1089 834 675 789 729 715 625 639 797 545 755 541 604 447 747 435 332 631 352 282 374 190 492 327 509 341 417 244 493 200 342 341 312 507 414 222 244
internal_count=9000 4814 4186 2925 1889 2098 2088 1804 1473 1121 1359 1214 1089 834 675 789 729 715 625 639 797 545 755 541 604 447 747 435 332 631 352 282 374 190 492 327 509 341 417 244 493 200 342 341 312 507 414 222 244
is_linear=0
shrinkage=0.05


Tree=9
num_leaves=50
num_cat=0
split_feature=17 21 21 17 17 28 28 28 28 28 21 17 21 17 21 28 17 21 21 17 21 17 21 21 17 28 21 21 28 17 21 17 21 21 21 17 28 21 28 17 28 28 28 28 28 17 21 17 17
split_gain=4.76746e+06 1.84954e+06 1.13984e+06 808627 512240 359019 328926 323720 250856 235589 199737 188646 167180 148002 126664 124631 116406 111942 97212.6 94182.8 92206.2 88057.2 83406.1 68287.4 67441 66437.9 62216.5 61747.8 58873 57174 55256.6 45768.6 45556.7 45314.8 41786.1 40217.8 40058.3 39722.3 39052.9 38337.1 36569.5 34754.1 34659.2 34055.5 28034.8 25111.2 23526.8 22704.6 20864.1
threshold=-0.32126947738351502 0.25163046101571213 -0.02597721319010254 0.56519625404113882 0.85886514213622422 -0.3740078952435143 -0.13256413726154589 0.44498522319081474 0.78800489523313233 0.25329688153976082 -0.63874285912592066 -1.2376360110851985 -0.84759236759607892 -1.3038475773180664 -0.89292037310462669 -0.47839456855291945 -1.5639428084089906 -0.92028280860523648 1.0679869494710303 1.8594489624639088 1.5303038759998053 -1.1674415675691823 0.85445638503898425 1.4630254540261294 1.3954483575145289 0.76991427737860996 -1.5827957164243383 1.4398128061247604 -1.0677924916947139 0.29295051342179534 1.7474947839438146 1.6853708254092996 1.1384369237068419 -1.2806764160301343 -1.1692277595953884 1.6853708254092996 1.3921245015285935 -0.74347963798805727 -0.45598718046832537 -2.0545093266374543 -1.2461785038604316 -1.5113450320478348 1.1377281353431825 -0.51930815980570588 0.70372205909030949 -2.0545093266374543 1.9713491319383891 1.5248191691299595 -2.3142156157900335
decision_type=2 2 2 2 2 2 2 2 2 2 2 2 2 2 2 2 2 2 2 2 2 2 2 2 2 2 2 2 2 2 2 2 2 2 2 2 2 2 2 2 2 2 2 2 2 2 2 2 2
left_child=2 3 7 5 9 17 16 11 12 20 26 28 31 30 38 32 48 -2 36 -14 29 45 40 35 34 -12 -7 42 -1 -3 39 -5 47 -30 -10 -17 -15 -23 -13 -8 -18 -19 -11 -16 -20 -9 -24 -6 -4
right_child=1 4 6 8 15 10 13 21 24 27 25 14 19 18 43 23 22 41 44 -21 -22 37 46 -25 -26 -27 -28 -29 33 -31 -32 -33 -34 -35 -36 -37 -38 -39 -40 -41 -42 -43 -44 -45 -46 -47 -48 -49 -50
leaf_value=-5.1339073860482003 -2.5060811283010427 0.38075647878099805 -3.9519840176900227 -0.47735531253151992 1.2528838332674721 -1.8059088583290579 -2.5990246793958875 -3.8895499785741174 0.4595520143150067 1.7161459254174074 0.11361082458691629 -3.8591416690084674 0.88594804433167074 -0.15814798339850858 -2.3814071569319957 3.0356807964140198 -2.4152911166350051 -1.9650071521600088 0.83131903594344103 2.6999732195576538 2.1956707136113516 -1.5379348160784936 -0.54865193298962567 4.8819181318406937 3.3112293993830684 1.1125387178210731 -0.50159607327659617 3.3413955742972234 -4.7658834134118031 1.2474510925220657 1.0616326180951936 0.99377475252840675 3.1126133279102604 -3.2031361962243707 2.1094446869219765 4.2843461990356451 1.0815473049094801 -0.49141826157831603 -2.7323264584396827 -0.96736882045865069 -1.2869672537163686 -0.84738852702435485 2.6261477476631114 -1.5283571589817393 2.0462855855120892 -2.1271076483186335 1.1003729149699211 2.4754467470892543 -2.4294100772009957
leaf_weight=73 198 444 30 304 110 120 45 24 49 331 442 144 759 457 233 351 96 87 119 79 129 168 219 77 100 267 384 105 59 333 28 64 82 217 177 79 76 197 165 180 285 347 153 235 79 128 24 58 90
leaf_count=73 198 444 30 304 110 120 45 24 49 331 442 144 759 457 233 351 96 87 119 79 129 168 219 77 100 267 384 105 59 333 28 64 82 217 177 79 76 197 165 180 285 347 153 235 79 128 24 58 90
internal_value=0 0.890546 -1.48706 0.15042 2.00041 -0.554613 -0.590541 -2.42996 0.999498 1.46381 -0.0511609 -2.90553 0.666847 0.0092995 -2.47179 3.06014 -1.38388 -1.52089 0.370051 1.05696 0.957725 -1.3942 -1.10961 3.51064 2.2301 0.489794 -0.812147 2.24226 -3.87118 0.752197 -1.03303 -0.221507 2.14651 -3.5372 1.75172 3.26509 0.0186191 -0.973103 -3.25744 -1.2937 -1.57127 -1.07143 2.00381 -1.95306 1.31608 -2.40539 -0.385785 1.67496 -2.81005
internal_weight=0 5629 3371 3377 2252 1845 1728 1643 1532 1495 1213 1126 1206 984 777 757 744 632 731 838 906 517 624 507 326 709 504 589 349 777 253 368 250 276 226 430 533 365 309 225 381 434 484 468 198 152 243 168 120
internal_count=9000 5629 3371 3377 2252 1845 1728 1643 1532 1495 1213 1126 1206 984 777 757 744 632 731 838 906 517 624 507 326 709 504 589 349 777 253 368 250 276 226 430 533 365 309 225 381 434 484 468 198 152 243 168 120
is_linear=0
shrinkage=0.05


Tree=10
num_leaves=50
num_cat=0
split_feature=17 21 21 17 17 28 28 28 28 17 28 21 17 28 21 21 21 21 17 17 21 28 17 21 21 17 21 28 21 21 28 28 21 28 21 28 17 28 28 28 17 21 17 28 21 17 17 21 17
split_gain=4.30335e+06 1.64986e+06 1.06659e+06 665898 510488 370173 289834 254998 228862 222135 213104 158394 153085 145055 140712 126618 121254 104521 104079 94449.3 85504 78415.5 67646.3 65670.7 64150.5 56297.1 54799.5 52789.4 52584.2 48689.9 47914.2 46130.2 40820 38578.9 38408.7 36508.9 36156.8 34468 33103.3 31207.6 30121.6 27430.6 26582.5 24654.4 24528.4 24482.4 22846 21468.7 21223.2
threshold=-0.3007415893220669 0.12331097919106711 0.24145000359635335 0.55175624061677009 0.75636487324066326 0.44498522319081474 1.0000000180025095e-35 0.39031123022335773 0.25329688153976082 -1.2376360110851985 -0.57278534646996349 -0.89292037310462669 -1.4671628313886578 -0.54693660814934253 -1.2416733828510822 -1.2416733828510822 -0.62693090777419869 1.0197482104950508 1.6853708254092996 -1.1674415675691823 1.3609194895506012 -0.70881359646173425 -0.81673111298774326 1.1782902348290734 -0.47065886486244374 1.3954483575145289 -0.74347963798805727 -0.73222120631539489 1.1038206581192582 -0.593062449593034 -1.5477748345023312 -1.0848983458089327 -1.6600438028021378 -0.98361499891864701 1.4630254540261294 -1.208470360345326 -2.3142156157900335 1.3616137360256124 1.673024164231717 -1.0848983458089327 -2.0545093266374543 1.3609194895506012 1.5033608487392265 -1.023448702934237 1.3893098626966862 -1.748306903924761 1.2708304934566257 1.337686850031625 1.5248191691299595
decision_type=2 2 2 2 2 2 2 2 2 2 2 2 2 2 2 2 2 2 2 2 2 2 2 2 2 2 2 2 2 2 2 2 2 2 2 2 2 2 2 2 2 2 2 2 2 2 2 2 2
left_child=2 3 5 6 8 9 15 12 17 24 29 35 36 28 46 -2 32 31 -16 40 25 47 41 38 39 -15 -21 -13 48 -5 -17 -3 -8 -19 -23 -11 -4 -18 -10 -1 -7 45 -31 -26 -24 -9 -12 -14 -6
right_child=1 4 7 10 13 19 16 22 23 11 14 27 21 20 18 30 37 33 -20 26 -22 34 44 -25 43 -27 -28 -29 -30 42 -32 -33 -34 -35 -36 -37 -38 -39 -40 -41 -42 -43 -44 -45 -46 -47 -48 -49 -50
leaf_value=-5.2674714839204837 -2.4969444601676045 -0.41010538190603257 -3.4958845244513621 -0.64660462268814456 1.0383841042150588 -3.5906007698604037 -1.5877181011510184 -1.3003921432466043 1.5423521820407067 -4.3446326236335606 -0.35537742465361954 -2.321208607701577 -1.42456650775671 2.5041330841646534 1.2961836751279705 -2.1006042158603671 0.37389312808584041 0.59540569172019053 2.8053073347049908 -1.4647385617782331 4.3875032528026692 -0.29910111905507503 0.96331593318496445 2.9134354462494723 -3.9033461700786241 3.5554435759324292 -0.34662288726611079 -1.3907965910901934 2.8075834751129154 0.11968088968871878 -0.79021977991805581 0.61108460356341476 -0.3392347423226062 1.8565956844102354 0.90911856105055999 -2.8594306906363123 -1.7368907500851538 1.4481768857291406 2.82989504295483 -3.8189251588971431 -1.8169544551950514 1.0983674532473087 1.4250566110588039 -2.5498903487945772 2.2094211625117883 0.069927042746131526 0.78890491768495363 -0.28416798140746186 2.1657206214707472
leaf_weight=47 170 145 36 200 149 28 83 41 402 49 125 239 200 367 688 80 363 84 137 174 111 393 175 148 44 195 296 421 89 156 545 466 310 218 79 266 155 94 57 178 165 50 52 143 51 159 67 52 58
leaf_count=47 170 145 36 200 149 28 83 41 402 49 125 239 200 367 688 80 363 84 137 174 111 393 175 148 44 195 296 421 89 156 545 466 310 218 79 266 155 94 57 178 165 50 52 143 51 159 67 52 58
internal_value=0 0.860193 -1.38966 0.0845922 1.81684 -2.11479 -0.600784 -0.320996 1.24511 -2.57932 0.875781 -2.16799 -0.809275 2.71367 1.26306 -1.28704 0.0410688 0.744854 1.54679 -1.14299 3.11938 -0.477094 0.617608 1.99756 -3.55272 2.86891 -0.760564 -1.72772 1.79124 -0.0895778 -0.957949 0.36874 -0.602909 1.5058 -0.0968779 -3.09046 -2.06843 0.594862 1.70224 -4.12151 -2.07427 0.0508828 0.446025 -2.86835 1.24452 -0.210988 0.0439294 -1.18925 1.35426
internal_weight=0 5559 3441 3070 2489 2050 1645 1391 1520 1387 1425 975 915 969 1017 795 850 913 825 663 673 724 476 607 412 562 470 660 296 408 625 611 393 302 472 315 191 457 459 225 193 250 208 187 226 200 192 252 207
internal_count=9000 5559 3441 3070 2489 2050 1645 1391 1520 1387 1425 975 915 969 1017 795 850 913 825 663 673 724 476 607 412 562 470 660 296 408 625 611 393 302 472 315 191 457 459 225 193 250 208 187 226 200 192 252 207
is_linear=0
shrinkage=0.05


Tree=11
num_leaves=50
num_cat=0
split_feature=17 21 21 17 17 28 28 28 17 17 21 28 21 28 28 21 17 21 21 21 17 17 28 28 21 21 28 21 21 17 28 28 21 17 21 28 28 28 17 28 28 21 17 21 28 28 28 21 17
split_gain=3.91985e+06 1.48801e+06 994977 690894 348127 308572 276948 252050 218126 208772 167923 163690 153850 148124 135524 113733 110563 91155.9 85448 78011.6 77752.4 68564.8 65390.5 61719.7 56968.6 55612.3 53873.5 53229.4 52006.2 46359 45678.8 44232.2 41958.7 40221.3 40025.8 39640.1 37369.3 36412.7 34615.2 32224.6 30208.1 30155.3 29337.8 27135.2 26064.7 24322.7 23655.8 21501.8 20892.8
threshold=0.22339921613104918 -0.42585225568396251 -0.25231197471218497 -0.60759428469622134 -0.67254145649534547 -0.47839456855291945 -0.33353542901659194 0.27301950231947569 1.2374691436287966 1.2708304934566257 0.72564096074606266 -0.10341406027225349 0.67535798406968173 0.28439101532693295 -0.41668682678905511 0.70059383457585966 1.5248191691299595 0.42423164283999854 0.56226577967409175 0.97403344800375835 -1.7855142149060546 -1.5358480845068423 -0.64500916184740242 0.67114664233123233 -1.1692277595953884 -1.6600438028021378 0.75543857074995968 -1.6210983009266611 1.5303038759998053 -1.6599111949773866 1.0178542485725395 0.80213184654325531 -1.6600438028021378 -1.5639428084089906 -1.1048097764297058 0.95281203053826735 1.1890151185684088 0.95281203053826735 -1.9503007301977424 1.2332162583265365 -0.87069901312744269 -1.349263565758708 2.1301187011293279 1.2346082243553471 -1.7814594555284247 -1.2288130348171473 -1.4309171688967075 -2.0069000722495263 0.72018665772428447
decision_type=2 2 2 2 2 2 2 2 2 2 2 2 2 2 2 2 2 2 2 2 2 2 2 2 2 2 2 2 2 2 2 2 2 2 2 2 2 2 2 2 2 2 2 2 2 2 2 2 2
left_child=1 4 8 7 14 16 18 12 11 15 23 24 20 25 38 26 19 33 45 48 -3 -16 -10 -8 47 -6 -7 -13 39 -14 -23 -12 -15 -9 -24 -17 -19 -29 -1 -11 -27 -40 -36 -18 -20 -5 -26 -2 -4
right_child=2 3 5 6 13 9 10 17 22 28 31 27 29 32 21 35 43 36 44 -21 -22 30 34 -25 46 40 -28 37 -30 -31 -32 -33 -34 -35 42 -37 -38 -39 41 -41 -42 -43 -44 -45 -46 -47 -48 -49 -50
leaf_value=-5.6604393005371101 -2.8935209592183431 -3.3164615472157801 0.080646742206926525 -1.5251530604977761 -3.0897929488288032 1.2689420067158703 0.02152875249208545 -2.024292218287786 0.22072944752542323 2.9293026004157725 1.2626885313669156 -0.74989856091546425 -1.9727207118556613 -1.8363380527671644 -3.3915305747985842 2.3597083634840401 2.0605706148540852 0.007626795807109882 -1.2274463809769731 1.6902266835963187 -1.7693203934908366 -2.3443901760522339 0.79564713294568823 0.92135051890186448 -1.386860986692565 -2.325308740375847 2.2176101488917399 0.34543683622979515 5.0741734626965647 -0.48848391950194697 -1.0649990613889564 2.3448963673625673 -0.47544448492927671 -0.58160495068877938 1.7461853713928901 3.5045327313092289 1.2120592103915269 1.2523910924329522 -4.4016598481398361 4.2420361280441288 -1.474680994971264 -3.2108852637742098 3.2935460040443822 3.8795037416311411 0.35323151854949225 -0.66692425985462389 -0.26680928355695416 -1.3294080433577804 0.77434213326234658
leaf_weight=22 27 96 208 124 90 455 469 60 113 283 290 81 63 68 125 331 97 233 29 176 527 299 95 321 56 151 223 354 39 319 91 140 339 248 158 98 89 161 78 56 338 167 38 26 259 247 298 118 227
leaf_count=22 27 96 208 124 90 455 469 60 113 283 290 81 63 68 125 331 97 233 29 176 527 299 95 321 56 151 223 354 39 319 91 140 339 248 158 98 89 161 78 56 338 167 38 26 259 247 298 118 227
internal_value=0 -0.875465 1.24373 -0.280196 -2.0586 1.91601 0.373793 -1.03178 0.248559 2.33053 0.819931 -0.1178 -1.5233 -1.43376 -2.84643 1.9841 1.07735 -0.247691 -0.452137 0.802013 -2.00772 -2.37248 1.24154 0.387153 -0.785909 -1.94757 1.58097 0.441574 3.34508 -0.733266 -2.04587 1.61504 -0.702817 -0.862648 1.63793 2.62123 0.340529 0.62897 -3.76059 3.14616 -1.73735 -3.58999 2.04618 2.44506 0.194066 -0.953772 -0.443993 -1.62066 0.442644
internal_weight=0 5282 3718 3514 1768 2219 1879 1635 1499 1485 1220 1095 1005 986 782 1107 734 630 659 611 623 515 404 790 499 579 678 596 378 382 390 430 407 308 291 429 322 515 267 339 489 245 196 123 288 371 354 145 435
internal_count=9000 5282 3718 3514 1768 2219 1879 1635 1499 1485 1220 1095 1005 986 782 1107 734 630 659 611 623 515 404 790 499 579 678 596 378 382 390 430 407 308 291 429 322 515 267 339 489 245 196 123 288 371 354 145 435
is_linear=0
shrinkage=0.05


Tree=12
num_leaves=50
num_cat=0
split_feature=17 21 21 17 17 17 28 17 28 28 28 28 21 28 21 28 21 21 21 21 28 21 21 21 17 17 17 21 28 28 21 21 28 21 28 28 21 28 28 28 28 21 21 21 17 17 17 28 21
split_gain=3.54763e+06 1.15372e+06 1.10815e+06 441531 426536 299585 258699 256477 226024 151131 148426 133386 132836 119652 113071 104714 99714.2 94948.5 93040.5 89751.9 89241.2 69455.8 61039.9 60867 56640.3 48744.3 46147.1 45719.2 45380.3 43530.2 42128.2 40477.9 37378.1 36951.8 35756.8 35506.3 35334.3 35269.4 33649.1 33511.8 32394.6 30235.9 28026.3 27684.5 25760.6 23779.3 22884.4 22093.7 21281.2
threshold=-0.024904450268257463 -0.35696199224020814 0.22060011390276332 0.89054057364070627 -1.0497068144898143 -0.88978722539041488 0.11928665654479169 0.79789147175464392 0.1014793902721738 0.48404947665507403 -0.57278534646996349 0.4245216891628486 -0.61492825793065842 -0.8073027417988049 0.60498721708235792 -0.87069901312744269 0.67535798406968173 -0.9911066042571226 0.66560155421832856 -0.79535107178468711 0.4340424189018347 1.3893098626966862 1.7474947839438146 -1.349263565758708 -1.8842423902272658 1.6853708254092996 -2.0545093266374543 -1.5140249165615118 -0.93747452429863565 1.2766444047872445 -1.6600438028021378 0.71226702616781912 0.60361212317202539 -1.3050792184388034 -1.2288130348171473 -0.93747452429863565 -2.0069000722495263 -1.0372044301087555 1.5447294271825716 -0.88537796723263151 -1.4309171688967075 -1.8774823477427873 1.2346082243553471 1.6550094465192313 1.4157885283276201 1.9832413011129713 -1.9503007301977424 1.1708534624302946 1.4630254540261294
decision_type=2 2 2 2 2 2 2 2 2 2 2 2 2 2 2 2 2 2 2 2 2 2 2 2 2 2 2 2 2 2 2 2 2 2 2 2 2 2 2 2 2 2 2 2 2 2 2 2 2
left_child=2 7 4 8 13 15 12 11 14 16 42 23 30 46 40 48 28 47 38 41 27 32 24 -2 -17 -18 -21 -9 -5 -19 -6 45 -12 -13 -29 -16 -22 -14 -10 -25 -3 -15 -7 -20 -38 -11 -1 -8 -4
right_child=1 3 5 9 6 10 17 20 18 31 21 33 37 19 35 22 25 29 43 26 36 -23 -24 39 -26 -27 -28 34 -30 -31 -32 -33 -34 -35 -36 -37 44 -39 -40 -41 -42 -43 -44 -45 -46 -47 -48 -49 -50
leaf_value=-5.2684871978759773 -1.9075778631738534 -0.8043114228085394 -2.3682219741690873 0.7149239535104166 -3.438078652305165 -0.77243993061068261 -1.8149910707780919 -0.82721757066400758 1.1079350245689927 2.6557101878604374 0.29282532122528332 -0.72352874335355877 -1.9371858741786028 -4.4820636585780553 0.56012589953262626 -2.0563069817046045 2.295607020138982 -0.54406858280100567 2.1513886722863891 -3.2846613693237305 -0.31388104309638343 1.7511602801355448 0.93988288392623276 -1.4506350468378515 -0.5339192519726691 3.6933555614517397 -1.6533295251794755 -0.52468793837117478 1.814154161646746 0.43102898030231396 -2.2120535333951312 4.0459266592603216 1.0783147226971515 0.49783000217331025 0.71493241088031012 1.5406072209786739 1.2797373992009242 -1.0286788078762281 2.2166754151568 -0.50481079753627067 0.26121339183379494 -2.8834813830116035 0.36399173855151928 3.3791236264365061 2.477628470138765 4.2191964830671038 -3.6225496348212745 -0.67869290266314464 -0.70452243957830518
leaf_weight=25 152 84 117 129 87 230 163 79 441 185 426 82 148 35 142 71 251 483 255 50 24 154 60 128 438 83 326 71 345 150 360 109 235 253 322 264 122 384 81 349 473 191 71 56 71 28 136 58 23
leaf_count=25 152 84 117 129 87 230 163 79 441 185 426 82 148 35 142 71 251 483 255 50 24 154 60 128 438 83 326 71 345 150 360 109 235 253 322 264 122 384 81 349 473 191 71 56 71 28 136 58 23
internal_value=0 0.975423 -1.01028 1.57195 -1.67401 -0.0661583 -1.26051 -0.0805074 1.08476 2.34629 0.444452 -0.607044 -1.81529 -2.66738 0.563084 -0.869884 1.98126 -0.624518 1.68786 -2.34358 0.656185 0.794879 -0.568474 -1.03627 -0.746276 2.64295 -1.87026 0.27035 1.515 -0.313003 -2.45068 3.26227 0.572084 0.198871 0.490981 1.19768 1.49542 -1.28142 1.27998 -0.758617 0.100524 -3.13105 -0.504378 2.37246 1.72041 2.86124 -3.87813 -1.51678 -2.0949
internal_weight=0 4579 4421 2926 2596 1825 1833 1653 1796 1130 1116 964 979 763 963 709 808 854 833 602 689 815 569 629 509 334 376 472 474 633 447 322 661 335 393 406 217 532 522 477 557 226 301 311 193 213 161 221 140
internal_count=9000 4579 4421 2926 2596 1825 1833 1653 1796 1130 1116 964 979 763 963 709 808 854 833 602 689 815 569 629 509 334 376 472 474 633 447 322 661 335 393 406 217 532 522 477 557 226 301 311 193 213 161 221 140
is_linear=0
shrinkage=0.05


Tree=13
num_leaves=50
num_cat=0
split_feature=17 21 21 17 17 21 28 28 28 17 28 21 21 28 28 28 17 21 21 17 28 17 21 28 28 21 28 17 28 21 21 21 17 17 21 28 17 21 21 21 28 28 17 21 17 28 21 21 28
split_gain=3.23041e+06 1.28062e+06 768126 623571 320423 255773 239081 227411 151842 145984 142476 124152 121667 115823 108305 107268 101776 93962.7 81633 76760.7 60428 51521.7 50407.2 47025.4 45511.9 42866.5 42579.1 41666.4 40621.1 37601.4 35409.7 34406.7 34039.5 33717.6 33560.2 33202.1 32724 32473.5 28979.1 28359.1 28234.6 26185.1 25600.8 23772.1 23414.8 21802.8 19206.3 17994.9 17346.6
threshold=0.30591909848297455 -0.42585225568396251 0.33446099250322969 -0.57548372977139406 -0.67254145649534547 -0.61492825793065842 0.21973426210849914 0.27301950231947569 -0.54693660814934253 1.3188784613728015 -0.3740078952435143 0.95614992104520613 0.57214467769443855 -0.70881359646173425 -0.38459017153653291 0.089390289047726654 1.4701691841505113 0.43644098861773678 0.60498721708235792 -1.6001739442494409 0.86637679269510393 1.1607089748691419 -1.3050792184388034 -1.0027437604301372 1.0773347403753097 -1.7774280150153181 1.1550990135580037 1.3620570181248481 -1.3244232753568359 -1.6600438028021378 1.4953842068092034 1.5303038759998053 1.4412630250164311 -1.5639428084089906 1.5708984760193523 1.1890151185684088 -1.8370666735639971 1.4398128061247604 1.4630254540261294 -1.8774823477427873 1.0374759749276317 1.1708534624302946 -1.5085968738468167 -2.0069000722495263 2.2420601049508422 0.95281203053826735 -1.349263565758708 -2.0861577088913497 -1.6910447896090501
decision_type=2 2 2 2 2 2 2 2 2 2 2 2 2 2 2 2 2 2 2 2 2 2 2 2 2 2 2 2 2 2 2 2 2 2 2 2 2 2 2 2 2 2 2 2 2 2 2 2 2
left_child=1 4 5 7 13 15 12 11 32 14 29 19 23 42 38 21 24 41 33 -3 25 43 47 -5 -10 -15 37 39 -11 -6 -19 44 48 -9 -14 -20 -13 -16 -4 -17 -24 -8 -1 -2 -30 -18 -22 -12 -7
right_child=2 3 9 6 10 8 17 18 16 28 22 36 34 20 26 27 45 30 35 -21 46 -23 40 -25 -26 -27 -28 -29 31 -31 -32 -33 -34 -35 -36 -37 -38 -39 -40 -41 -42 -43 -44 -45 -46 -47 -48 -49 -50
leaf_value=-4.5983658570509691 -2.5088383492969335 -2.6356376392500742 0.92247405605637189 -1.1835652351703334 -3.092150128588957 -0.92581001662072682 0.24300501922711787 -1.622564493947559 0.99265978952193723 1.4533292346140918 -2.4514978528022766 -2.1798277430534365 0.32977305845616089 -3.8476711485120987 1.8760515398778042 -0.80356501778777778 2.1965098813428718 1.3647398829975217 0.14461620941608397 -1.4273371482153874 -2.4593215257890764 0.22676900537263964 -0.77698993622876156 -0.24556722641859557 1.9818906514611965 -2.3445585165268339 3.1232835272438511 1.5000784678657124 2.8641083530095073 -1.7967691809501289 2.5327332996740575 4.4193244934082037 1.1713141706254748 -0.42534013295830325 1.3770058762757704 1.3851012022108646 -0.28290010114753267 2.967608251804259 2.1283006021233857 0.50136437571274672 0.091596061003208162 1.061824303204929 -3.2991492652893069 -0.76906880380806286 4.5411223204239555 3.4512258607514052 -1.05702941586142 -1.2627761822862504 0.16932842841730097
leaf_weight=52 21 168 272 184 68 42 273 72 571 34 40 25 411 54 403 49 118 311 199 604 31 155 372 488 146 390 117 94 219 318 82 54 81 321 94 74 251 82 61 277 125 152 140 302 23 49 115 156 260
leaf_count=52 21 168 272 184 68 42 273 72 571 34 40 25 411 54 403 49 118 311 199 604 31 155 372 488 146 390 117 94 219 318 82 54 81 321 94 74 251 82 61 277 125 152 140 302 23 49 115 156 260
internal_value=0 -0.743356 1.20714 -0.206327 -1.81366 0.635195 0.394596 -0.905767 1.09272 2.18601 -1.25513 -1.36489 -0.0617141 -2.58433 1.8669 -0.0103392 1.45301 1.05117 -0.183307 -1.69028 -2.2372 -0.522584 -0.826326 -0.5024 1.19409 -2.52737 2.26714 0.572644 3.09013 -2.02497 1.60844 3.27814 0.261143 -0.644679 0.524704 0.480865 -0.454723 2.0606 1.14336 0.305225 -0.558533 0.535853 -3.65102 -0.882181 3.02349 2.56466 -1.35478 -1.50537 0.0170244
internal_weight=0 5570 3430 3709 1861 2165 1995 1714 1267 1265 1079 1048 1177 782 935 898 884 818 666 772 590 478 693 672 717 444 602 420 330 386 393 296 383 393 505 273 276 485 333 326 497 425 192 323 242 167 146 196 302
internal_count=9000 5570 3430 3709 1861 2165 1995 1714 1267 1265 1079 1048 1177 782 935 898 884 818 666 772 590 478 693 672 717 444 602 420 330 386 393 296 383 393 505 273 276 485 333 326 497 425 192 323 242 167 146 196 302
is_linear=0
shrinkage=0.05


Tree=14
num_leaves=50
num_cat=0
split_feature=17 21 21 17 17 28 28 28 21 21 28 28 28 17 17 21 21 17 21 21 21 17 28 28 28 17 28 17 21 21 21 28 17 21 21 28 21 28 17 28 28 21 28 21 17 17 28 17 21
split_gain=2.92773e+06 1.15402e+06 698634 513955 331871 265236 242048 176011 152004 147999 143986 132446 111844 100033 84393.5 74686.3 71711 65656.3 62415.3 61577.7 59879.6 58003.6 54638.6 51710.2 51283.3 46674.8 43261 40437.2 40084.6 37537.7 37262.1 36948.9 36383.9 35807.8 33614.6 31046.2 30061.8 29052.8 27950.9 23873 22441.9 21156.7 20974.5 19857.7 19774 18961.9 18874 18115.4 17629.2
threshold=-0.3390755168866792 0.25163046101571213 0.24145000359635335 0.73292252920843326 0.6590376964385557 0.46302547304341729 0.44498522319081474 0.40222697035436655 -0.76944689217022655 -0.6918862893123171 -0.15437002084673659 0.45296617167434888 -0.54693660814934253 -1.4671628313886578 -1.2599566607534938 -0.58190023850644323 -0.93822344366868771 -1.3212326314789273 1.0197482104950508 -0.84759236759607892 1.9082032311113977 -1.3212326314789273 -1.023448702934237 -0.59970642926980811 0.98569717806906965 1.5859328755790949 -0.98361499891864701 -0.81673111298774326 -1.6600438028021378 1.4953842068092034 -0.54940513132766822 -0.73222120631539489 1.8594489624639088 1.2346082243553471 1.4953842068092034 -0.67080588964097043 -1.6600438028021378 -0.98361499891864701 -2.3142156157900335 -1.023448702934237 1.4642681669007185 1.25925467081376 1.5447294271825716 -2.0861577088913497 -2.1576278750142532 1.6853708254092996 -0.96793238619543953 1.5248191691299595 1.2346082243553471
decision_type=2 2 2 2 2 2 2 2 2 2 2 2 2 2 2 2 2 2 2 2 2 2 2 2 2 2 2 2 2 2 2 2 2 2 2 2 2 2 2 2 2 2 2 2 2 2 2 2 2
left_child=2 3 6 5 11 8 9 13 26 17 19 18 33 38 39 36 43 46 35 45 25 44 -15 -10 -18 -14 -2 41 -19 -24 42 -16 -21 47 -13 -3 -7 -20 -4 -11 -17 -9 -23 -12 -8 -5 -1 -6 -29
right_child=1 4 7 10 12 15 21 27 23 14 16 34 20 22 31 40 24 28 37 32 -22 30 29 -25 -26 -27 -28 48 -30 -31 -32 -33 -34 -35 -36 -37 -38 -39 -40 -41 -42 -43 -44 -45 -46 -47 -48 -49 -50
leaf_value=-4.6892086926628567 -2.2236936228615898 -0.14700335766928099 -2.970636761850781 -0.71321025978507746 0.8926234487725726 -1.1365731971338391 -3.2670344579787485 -0.19181832234601717 -0.81651672905793982 -3.3949715363351922 -0.62106009821097063 1.5718046229101219 2.2835124571962599 -1.2476265351863425 -1.9046179318914609 0.61255209453379988 1.3914242275713524 -3.3818031120300294 0.36794259225900627 0.49309138926854801 4.4644200069148372 -1.4282668467318074 -0.36669485644260547 -0.049855285551187088 2.5055761376472372 3.3756230913903105 -1.1762961937745267 0.75085740725075212 -2.193648648332982 0.79074220339576895 -0.30165851817432582 -1.0407871538684494 1.9647256205479307 2.3979426916543538 2.7816146435944931 0.63841576627637764 0.066994620917405753 1.4797500159749655 -1.4268431872318064 -2.2134131685335032 1.4274517965470923 0.88194954532091741 -0.2305586249931999 0.78811456234256427 -1.6088661292374136 0.61912431951725122 -3.3546674299240111 1.9016393828392031 1.8117000714787896
leaf_weight=34 133 194 36 140 172 64 21 185 378 57 30 342 511 157 196 311 353 90 76 336 41 178 449 526 146 121 381 150 336 83 259 336 48 77 69 358 274 259 158 171 116 61 46 150 125 33 120 60 53
leaf_count=34 133 194 36 140 172 64 21 185 378 57 30 342 511 157 196 311 353 90 76 336 41 178 449 526 146 121 381 150 336 83 259 336 48 77 69 358 274 259 158 171 116 61 46 150 125 33 120 60 53
internal_value=0 0.686337 -1.18492 0.10531 1.55762 -0.35597 -1.7832 -0.300537 -0.760781 -2.16301 0.920016 1.03293 2.25116 -0.710392 -1.70397 0.394384 1.4088 -2.76452 0.689124 0.324178 2.61273 -0.974058 -0.428 -0.370428 1.71741 2.4926 -1.44732 0.505482 -2.44467 -0.186117 -0.710076 -1.35904 0.677046 1.46366 1.77491 0.362381 -0.1609 1.22752 -1.71332 -2.5088 0.83393 0.0744412 -1.18231 0.553252 -1.84737 -0.459066 -3.64931 1.15358 1.02783
internal_weight=0 5699 3301 3419 2280 2183 1969 1332 1418 1340 1236 1298 982 883 760 765 679 580 887 557 673 629 689 904 499 632 514 449 426 532 483 532 384 309 411 552 338 335 194 228 427 246 224 180 146 173 154 232 203
internal_count=9000 5699 3301 3419 2280 2183 1969 1332 1418 1340 1236 1298 982 883 760 765 679 580 887 557 673 629 689 904 499 632 514 449 426 532 483 532 384 309 411 552 338 335 194 228 427 246 224 180 146 173 154 232 203
is_linear=0
shrinkage=0.05


Tree=15
num_leaves=50
num_cat=0
split_feature=17 21 21 17 17 28 28 28 17 28 28 28 21 21 21 17 21 21 21 28 17 21 21 17 28 28 28 17 17 17 28 21 21 28 28 28 28 21 21 17 28 17 28 21 28 21 21 28 17
split_gain=2.66126e+06 1.05621e+06 637695 466558 314629 207707 180914 177209 144754 142273 123033 110854 97258 91988.4 84307.8 81708.6 68794.1 68499.9 65289.7 61861 56056.6 53224 49865.8 47343.1 39933.5 39334.6 38895.8 37378.3 37210.3 35530.1 34806.9 33819.5 33534.1 32770.6 31745.4 29351.9 28699.9 27269.5 27182.4 26718.6 26708.5 24738.2 21650 19767.9 19472.6 17558.6 17006.5 14613.4 12711.6
threshold=0.30591909848297455 -0.29159571798914047 -0.33855486396151407 -0.57548372977139406 -0.68334020370003501 -0.55871952612942588 0.21973426210849914 -0.12303286605360748 1.3954483575145289 -0.57278534646996349 0.78800489523313233 -0.42866238595130607 0.51685089144808871 0.6544414852187207 0.57214467769443855 1.2510040154540409 0.97403344800375835 0.92655177364973307 -0.9911066042571226 -1.6579616013098919 -1.8842423902272658 1.2131060186653542 -1.4776457859091678 -2.0545093266374543 1.2586365875892966 1.1550990135580037 -0.70881359646173425 1.6464065836633937 -1.7855142149060546 1.4157885283276201 0.75543857074995968 -1.3893836335433576 1.2852966032260482 -1.023448702934237 -1.2461785038604316 1.0773347403753097 -0.95400195349171379 -1.6974999089828231 -2.0861577088913497 1.7345108589085905 1.6431937167911304 2.3482956583575767 -0.98361499891864701 2.0433537719578299 -1.5897742957730117 -1.349263565758708 -2.0069000722495263 -1.613804880819506 -1.4671628313886578
decision_type=2 2 2 2 2 2 2 2 2 2 2 2 2 2 2 2 2 2 2 2 2 2 2 2 2 2 2 2 2 2 2 2 2 2 2 2 2 2 2 2 2 2 2 2 2 2 2 2 2
left_child=1 4 10 7 11 16 14 19 12 31 15 34 30 23 33 22 27 40 38 48 -13 -21 -2 -9 -22 -14 -24 44 -15 46 -7 -6 41 -5 -1 -20 -16 -17 -11 -18 -8 -10 -39 -19 -4 -36 -12 -33 -3
right_child=2 3 5 6 9 8 17 13 32 18 29 20 25 28 36 37 39 43 35 21 24 -23 26 -25 -26 -27 -28 -29 -30 -31 -32 47 -34 -35 45 -37 -38 42 -40 -41 -42 -43 -44 -45 -46 -47 -48 -49 -50
leaf_value=-3.8255238396780835 -1.2419251282244921 -3.4113832092285161 -0.32335030265960352 -1.0277767323661979 -2.6686883524844522 1.0041134338783415 0.56832589897000452 -2.5599353949228925 2.4852980668582614 -2.3631296220033065 -0.49499661468324208 -3.2378642920291782 1.9584738025891371 -0.99955726067225137 -0.14248934740431771 -0.53101041082292799 1.4312350602104116 1.5767471412817637 -0.5578519554799759 -1.3843629447956802 -1.8814671664140221 -0.17085500716993757 -0.71283322619695466 -0.60019413406357103 -0.68554536293608592 3.0473082693496556 0.14474540487768572 1.6778175876986596 0.48953339629121378 2.2705768222521461 1.8189766014642257 -2.3067040165987884 4.0113711842950783 -0.1804645647833891 -3.5239120178222656 0.30061774900794486 0.70526869061261266 -0.021013175294949459 -1.0569465677294667 3.1347993426852758 1.5860461559295655 4.0777784559461807 1.1337311940861716 2.9614413579305015 0.53778942089029558 -2.4496632486019494 1.002916876935237 -1.397122030013374 -2.1508461235960326
leaf_weight=91 125 30 83 156 95 438 459 33 252 46 21 66 464 48 137 40 156 183 415 506 439 110 199 466 83 101 394 62 333 56 187 55 53 425 50 131 368 52 297 27 75 27 185 30 314 159 194 224 60
leaf_count=91 125 30 83 156 95 438 459 33 252 46 21 66 464 48 137 40 156 183 415 506 439 110 199 466 83 101 394 62 333 56 187 55 53 425 50 131 368 52 297 27 75 27 185 30 314 159 194 224 60
internal_value=0 -0.674702 1.09565 -0.12858 -1.54276 1.61711 0.414725 -0.756498 1.93525 -1.0357 0.204317 -2.26394 1.6777 -0.283105 0.00275067 -0.0529222 0.862873 1.01366 -0.691501 -1.34656 -1.8649 -1.16767 -0.334352 -0.729796 -1.69131 2.15312 -0.143042 0.536062 0.301931 1.14879 1.24792 -1.85388 2.85843 -0.40797 -3.04605 -0.351882 0.475283 0.67656 -1.23212 1.68258 0.711264 2.63941 0.88037 1.77177 0.357753 -2.70666 0.856609 -1.57643 -2.57103
internal_weight=0 5570 3430 3419 2151 2164 1833 1586 1522 1263 1266 888 1190 880 1086 995 642 747 889 706 588 616 718 499 522 565 593 459 381 271 625 374 332 581 300 546 505 277 343 183 534 279 237 213 397 209 215 279 90
internal_count=9000 5570 3430 3419 2151 2164 1833 1586 1522 1263 1266 888 1190 880 1086 995 642 747 889 706 588 616 718 499 522 565 593 459 381 271 625 374 332 581 300 546 505 277 343 183 534 279 237 213 397 209 215 279 90
is_linear=0
shrinkage=0.05


Tree=16
num_leaves=50
num_cat=0
split_feature=17 21 21 17 28 17 28 17 17 28 21 28 28 21 21 21 17 28 21 28 21 21 21 21 21 17 21 28 28 21 17 28 28 28 28 28 17 28 28 21 28 28 24 17 28 21 21 28 28
split_gain=2.41317e+06 841658 691056 357474 246369 218363 191562 184748 154754 125401 119592 113532 109814 87733.3 70721.6 66638.1 66169.2 58392.5 56150.7 54952.8 52782.9 50677.5 47738 45999.7 40833.6 40255 37226.6 37040.6 36135.7 34618.8 33747.4 33306.9 32132.3 30215 30021.5 27356.6 25431.9 24966.5 24228.2 22087.9 21776.9 20011.6 18083.5 18022.8 17038.5 16445.1 14904.8 14845 13836.9
threshold=-0.16215012134252674 0.31262408157828597 0.18794991522739382 0.80825110334302974 0.44498522319081474 1.0479891076141843 0.46302547304341729 -1.086272687156429 -1.086272687156429 -0.30032481739107703 -0.82028606565977691 0.45296617167434888 -0.60992111789995584 -0.66388564570743602 -0.66388564570743602 1.7000786412940683 -1.1674415675691823 -0.87069901312744269 -0.593062449593034 -1.1269070416648461 1.3893098626966862 1.2131060186653542 -1.3893836335433576 -0.93822344366868771 1.5708984760193523 2.1301187011293279 -0.7319118944775227 -1.2288130348171473 -0.6954350386885283 1.5708984760193523 -2.0545093266374543 1.1377281353431825 -1.5897742957730117 -1.208470360345326 -1.0027437604301372 0.60361212317202539 1.8135875841520457 0.69175120259476408 1.7529043534579436 -1.6974999089828231 -1.4748518661896617 -1.9621088472716639 0.05531892492152906 -2.1576278750142532 0.75543857074995968 1.3163292882230782 -1.5488033000458832 1.673024164231717 1.7888638407208899
decision_type=2 2 2 2 2 2 2 2 2 2 2 2 2 2 2 2 2 2 2 2 2 2 2 2 2 2 2 2 2 2 2 2 2 2 2 2 2 2 2 2 2 2 2 2 2 2 2 2 2
left_child=2 3 4 6 8 9 10 15 22 29 34 14 41 33 39 17 43 -4 38 -7 35 31 -1 -13 37 -16 46 -24 -12 40 -19 -11 -15 -10 -2 -14 -25 -21 -8 -5 -3 -9 -20 -6 -22 -43 -18 -28 -45
right_child=1 5 7 11 16 19 18 12 13 21 28 23 20 32 25 -17 26 30 42 24 44 -23 27 36 -26 -27 47 -29 -30 -31 -32 -33 -34 -35 -36 -37 -38 -39 -40 -41 -42 45 -44 48 -46 -47 -48 -49 -50
leaf_value=-3.6974511393794312 -1.9622871978260648 -0.25373432756486264 -2.195602030946751 -0.9053665370369951 -2.9514742442539763 1.1626186899154596 -0.19880695273875032 -1.7280550956726075 -2.942223072052002 1.1684638403152594 -0.64597107636353757 0.73114527256199813 0.076021353752847132 -2.2906147321065267 0.8121432846733756 0.56973937516337014 -1.7998548503803171 -1.9918465393560905 0.55402679761568907 2.1881165691957638 0.98711034914232654 2.250812978744507 -3.467070382925181 1.7603358915737162 3.735342188848966 2.4279133070082892 -0.28548560004534296 -2.1676629739736559 0.020160092788528081 1.6120626994768779 -0.64321009614094415 2.0531791982859593 -0.97467204684983466 -1.8452411325566183 -0.99052101053225194 0.74031869820126694 3.0231285017363883 3.1164219240347548 1.2403433438503382 0.18657063782999392 0.62182512219018393 -0.67255352261559209 1.2327346781680459 -1.5669002681142754 2.1225707391897841 0.32452114969491963 -0.78274421172598041 0.70706842138843484 -0.16339178070425989
leaf_weight=81 107 88 99 57 21 76 257 36 75 476 314 99 431 51 469 67 46 54 203 295 106 220 65 214 69 42 304 351 579 75 329 137 513 385 309 242 49 96 33 247 368 202 190 144 48 52 166 43 20
leaf_count=81 107 88 99 57 21 76 257 36 75 476 314 99 431 51 469 67 46 54 203 295 106 220 65 214 69 42 304 351 579 75 329 137 513 385 309 242 49 96 33 247 368 202 190 144 48 52 166 43 20
internal_value=0 0.720996 -0.92972 0.222121 -1.49828 1.55307 -0.186081 -0.156734 -1.863 1.21705 -0.540258 0.912976 0.212398 -1.51163 0.585699 -0.907774 -0.752681 -1.11315 0.492716 2.40815 0.505973 1.59982 -2.58693 1.6498 2.61393 0.944946 -0.481418 -2.3707 -0.214067 0.616587 -0.833357 1.36619 -1.09367 -2.0241 -1.24047 0.314892 1.99561 2.41604 -0.0350416 -0.0181676 0.452858 -0.624796 0.882155 -1.57234 1.34102 -0.468428 -1.00344 -0.162489 -1.39574
internal_weight=0 5069 3931 3169 2265 1900 1992 1666 1521 1364 1309 1177 1117 1024 815 549 744 482 683 536 827 833 497 362 460 511 559 416 893 531 383 613 564 460 416 673 263 391 290 304 456 290 393 185 154 254 212 347 164
internal_count=9000 5069 3931 3169 2265 1900 1992 1666 1521 1364 1309 1177 1117 1024 815 549 744 482 683 536 827 833 497 362 460 511 559 416 893 531 383 613 564 460 416 673 263 391 290 304 456 290 393 185 154 254 212 347 164
is_linear=0
shrinkage=0.05


Tree=17
num_leaves=50
num_cat=0
split_feature=17 21 21 17 28 17 28 28 28 21 17 28 21 17 17 21 17 17 21 28 28 28 21 21 28 21 28 28 21 21 21 28 21 17 17 17 21 17 17 28 28 28 28 21 21 28 28 21 28
split_gain=2.19663e+06 838006 560093 392450 194273 192316 156183 153836 142039 115742 110591 108926 92666.4 82710.8 75098.9 59231 53314.8 53238.9 52264.8 51968.8 43500.6 42608 42419.2 41488.7 41174.4 36000.4 34967.4 33146 32636.5 31824.3 31266.7 30814.6 30486.4 29440.9 28355.5 26886.2 26872.7 23901 19087.8 17778.7 17449.7 17086.8 15861.2 15832.4 15331 15257.5 15057.6 14544.6 12603.8
threshold=0.22339921613104918 -0.47065886486244374 -0.063529788392417588 -0.69943331880315818 -0.51930815980570588 -0.97339854568633355 -0.55871952612942588 -0.15437002084673659 0.55323257454719799 0.40018683426406521 1.2708304934566257 -0.33353542901659194 0.80278923575997974 1.1607089748691419 1.033628551524415 1.3163292882230782 1.4701691841505113 -1.7855142149060546 0.45125686937333415 -0.20156352526158514 0.86637679269510393 0.75543857074995968 -1.6210983009266611 1.0558626352091156 1.1550990135580037 -1.3893836335433576 0.83627489778176389 1.3195288264631888 -1.6600438028021378 -1.4430393256258116 1.6119238997214187 -1.3811509186478046 -0.93822344366868771 -2.1576278750142532 2.3482956583575767 -1.8370666735639971 0.85445638503898425 -1.5639428084089906 2.0493549373114726 -2.0227939593308597 -1.4748518661896617 -1.5113450320478348 -1.6579616013098919 -1.4776457859091678 -1.3050792184388034 1.4642681669007185 -2.0872793351401371 1.1937622202567431 -1.7814594555284247
decision_type=2 2 2 2 2 2 2 2 2 2 2 2 2 2 2 2 2 2 2 2 2 2 2 2 2 2 2 2 2 2 2 2 2 2 2 2 2 2 2 2 2 2 2 2 2 2 2 2 2
left_child=1 5 7 8 18 19 16 14 12 26 15 28 17 22 25 21 36 -3 46 42 -11 -8 -9 37 29 -2 -6 -24 -7 -13 34 -16 -15 -21 -12 -14 -4 -10 -33 -20 -27 -30 -1 -35 -44 -34 -5 -18 -38
right_child=2 3 6 4 9 11 10 13 23 20 30 24 35 32 31 -17 47 -19 39 33 -22 -23 27 -25 -26 40 -28 -29 41 -31 -32 38 45 43 -36 -37 48 -39 -40 -41 -42 -43 44 -45 -46 -47 -48 -49 -50
leaf_value=-4.2444110870361333 -1.5973849296569824 -2.4585611509064496 0.31762949721730921 -2.1963353737540867 -0.15514149929281304 -2.8083630326506381 1.1468799042275164 -0.6782941500842572 -1.1151308593919149 0.72644509285580228 2.3017642279666681 -1.7018859735248908 -1.65250755340554 0.7163612831875964 -0.55080377545909609 2.4705106909210617 1.4788303558528424 -1.2959620860483529 -1.3320081601142884 -3.6654418786366785 1.5873332283822821 1.9085706032923799 0.36940388804682361 0.93887772950125337 -0.1693189457365418 -1.2482783886737057 0.57942862404266737 1.3110124495949433 -2.4115158242445727 -0.86693771776446349 4.0199743775760428 0.46333147979575423 1.6042136740684509 -2.6539551349396402 4.2467878150939944 -0.31451328514408122 -0.0012652206842018211 -0.099206816730670694 1.7276453727483749 0.059614495067424812 -0.29672659714800725 -1.5178539600593366 -3.5730391604559766 -1.6321471082540802 -2.562780038934005 2.9509490569432577 -0.8699422038523541 2.7697872034708659 1.2519993840129513
leaf_weight=25 79 118 297 23 512 77 583 80 74 551 297 152 43 106 69 148 80 595 25 24 200 268 499 81 158 56 237 115 65 458 34 203 170 47 20 296 23 266 35 280 345 302 56 196 114 24 307 30 157
leaf_count=25 79 118 297 23 512 77 583 80 74 551 297 152 43 106 69 148 80 595 25 24 200 268 499 81 158 56 237 115 65 458 34 203 170 47 20 296 23 266 35 280 345 302 56 196 114 24 307 30 157
internal_value=0 -0.655364 0.931047 -0.226382 0.206761 -1.57996 1.5195 0.29105 -0.854189 0.517087 1.81556 -1.24908 -1.16479 0.704536 -0.231193 1.54731 0.838621 -1.48837 -0.526293 -2.44798 0.95571 1.38675 0.404662 -0.0780513 -0.888667 -0.621808 0.0772926 0.545764 -1.87249 -1.07499 2.57903 0.379539 1.39824 -1.99478 2.42448 -0.484229 0.609792 -0.32032 0.64926 -0.0544529 -0.429612 -1.67613 -3.0685 -1.82978 -2.89557 1.77082 -0.962388 1.83091 1.09186
internal_weight=0 5282 3718 3608 2135 1674 1937 1781 1473 1500 1350 1212 1052 994 787 999 587 713 635 462 751 851 694 421 768 480 749 614 444 610 351 307 300 267 317 339 477 340 238 305 401 367 195 243 170 194 330 110 180
internal_count=9000 5282 3718 3608 2135 1674 1937 1781 1473 1500 1350 1212 1052 994 787 999 587 713 635 462 751 851 694 421 768 480 749 614 444 610 351 307 300 267 317 339 477 340 238 305 401 367 195 243 170 194 330 110 180
is_linear=0
shrinkage=0.05


Tree=18
num_leaves=50
num_cat=0
split_feature=17 21 21 17 17 28 28 28 28 17 21 28 21 21 28 17 21 21 28 17 17 21 28 28 28 21 21 28 17 28 17 17 28 28 21 17 21 28 21 17 21 28 21 21 28 21 17 17 28
split_gain=1.99444e+06 788683 478758 419932 206401 168019 159692 125052 122110 103685 101588 84051.6 82357.3 71343.6 71280.1 70680.4 59003.5 53044.8 51255.2 50393.5 42484.3 41128.3 39379.2 35224.6 34678.8 33562.1 33325.8 32073 27795.2 27536.7 27086.8 26535.5 26242 24810.9 23759.9 22927.8 22201.4 21783.9 20931.3 20284.6 19290 17886.2 15747.8 14739.1 13531.9 12961.4 12507 12452.3 12127.8
threshold=-0.3491623076659765 -0.41964187053947738 0.24145000359635335 0.6590376964385557 0.46510479901791429 -0.42866238595130607 -0.33353542901659194 0.39031123022335773 0.48404947665507403 -1.5639428084089906 0.6544414852187207 -0.34067789589237901 0.95614992104520613 -0.54940513132766822 0.78800489523313233 -1.2599566607534938 -1.1048097764297058 1.005912150341592 -1.2288130348171473 -1.4671628313886578 1.4412630250164311 0.71226702616781912 0.97050360396420643 -1.023448702934237 1.673024164231717 -1.5827957164243383 1.6550094465192313 1.0013783601850685 -1.5358480845068423 -1.5477748345023312 -2.3142156157900335 1.7345108589085905 -0.98361499891864701 1.0773347403753097 1.5708984760193523 1.7764905468211893 -0.93822344366868771 0.95281203053826735 1.1937622202567431 1.6853708254092996 -1.6600438028021378 -2.0227939593308597 -1.7350699356297177 1.5303038759998053 -1.5477748345023312 -1.8774823477427873 -2.3142156157900335 -1.5358480845068423 -1.1955060464312901
decision_type=2 2 2 2 2 2 2 2 2 2 2 2 2 2 2 2 2 2 2 2 2 2 2 2 2 2 2 2 2 2 2 2 2 2 2 2 2 2 2 2 2 2 2 2 2 2 2 2 2
left_child=2 4 5 6 11 16 17 15 12 36 22 40 18 27 20 30 47 29 -5 -18 32 35 -8 -17 28 -13 -12 -11 -9 -3 -4 -14 -6 -15 -25 -10 -7 -27 -30 45 -2 -21 -22 -32 -42 -16 -38 -1 -19
right_child=1 3 7 8 14 9 10 24 21 13 26 25 31 33 39 23 19 48 -20 41 42 -23 -24 34 -26 37 -28 -29 38 -31 43 -33 -34 -35 -36 -37 46 -39 -40 -41 44 -43 -44 -45 -46 -47 -48 -49 -50
leaf_value=-4.0962830716913397 -2.1878653677683029 -1.0086531376575723 -2.5310294319151176 0.24862814833079616 -0.8865452447975124 -2.9373256596651949 0.31010562008388598 -0.68804740571050038 1.7911041944000357 -1.5988545719421272 1.2041672251965843 -1.2036916757604124 1.8147081472530315 -0.73059372949319779 -0.23581032312434652 -1.0028236150741578 -2.9052162408828739 0.14504148241653408 1.2565819425081926 -2.9009347365452696 -0.47717723066990198 2.9815830021688385 1.0260265422612429 -0.22176323359530503 1.5114691901774635 -0.44884267125055449 2.2155657038688661 -0.69371963239633128 0.19745932744831599 -0.10811362342224291 -1.2196027965752734 3.0283997484615872 -0.019572604682276049 0.10199320295027324 0.83216304067642466 3.0104680697123212 -2.7111009274759601 0.29860452836505452 1.1115129395179888 2.190707544599261 -1.9365996113529915 -1.545617450785967 0.8441070252656937 -0.11245160737207958 -1.0592054116902714 1.0442927791162375 -1.5729051300145072 -2.8107172769444588 1.0255345036018768
leaf_weight=22 63 102 36 155 108 66 637 66 269 396 439 113 230 445 23 133 96 59 677 26 26 146 275 389 63 365 100 130 238 506 213 56 455 112 62 45 31 133 85 35 54 382 170 35 236 141 109 131 116
leaf_count=22 63 102 36 155 108 66 637 66 269 396 439 113 230 445 23 133 96 59 677 26 26 146 275 389 63 365 100 130 238 506 213 56 455 112 62 45 31 133 85 35 54 382 170 35 236 141 109 131 116
internal_value=0 0.561744 -0.986233 0.978126 -0.264089 -1.48481 0.537069 -0.251205 1.60254 -1.15312 0.847609 -0.780617 1.32041 -0.957545 0.255674 -0.602391 -2.13558 -0.0384019 1.0688 -1.87451 0.0348342 2.28824 0.525981 -0.287752 0.423198 -0.425745 1.39181 -1.37515 0.246948 -0.259191 -1.2494 2.05235 -0.185884 -0.563179 -0.0768776 1.96585 -2.18133 -0.249223 0.438 1.09797 -1.39486 -1.63199 0.668835 -1.06335 -1.22258 0.864766 -1.82493 -2.99557 0.728683
internal_weight=0 5734 3266 3812 1922 1946 2234 1320 1578 1289 1451 964 1118 1083 958 868 657 783 832 504 759 460 912 584 452 611 539 526 389 608 284 286 563 557 451 314 206 498 323 199 353 408 196 248 290 164 140 153 175
internal_count=9000 5734 3266 3812 1922 1946 2234 1320 1578 1289 1451 964 1118 1083 958 868 657 783 832 504 759 460 912 584 452 611 539 526 389 608 284 286 563 557 451 314 206 498 323 199 353 408 196 248 290 164 140 153 175
is_linear=0
shrinkage=0.05


Tree=19
num_leaves=50
num_cat=0
split_feature=17 21 21 17 17 28 21 28 17 28 17 28 28 28 21 21 17 17 17 21 21 28 21 21 17 21 28 21 28 28 28 28 28 28 28 21 28 21 28 17 17 28 17 21 21 21 28 28 21
split_gain=1.80884e+06 633196 532935 220675 213116 184444 148138 122433 115949 112858 84751.5 81230 75380.2 73598.3 62490.1 59639.2 55507.1 51333 47685.9 44654.1 38558.4 37479.5 37038.2 36870.8 35873.9 35511.2 30943.3 29434.5 28927.3 27750.1 24601.2 24350.5 24296.3 23867.9 23059.2 20909.9 19815.2 18925.6 18688.7 18213.2 17918.8 17323.2 16155.1 14192 13835.7 13556.9 10357.4 8489.97 8468.68
threshold=0.094012941589202578 0.03791603491707194 0.32443469460292496 -0.88978722539041488 -0.99000128298468837 0.80213184654325531 -0.72235386299478943 0.31901769497561411 1.1985264219043701 -0.34067789589237901 0.75636487324066326 0.54214593898745067 -0.8073027417988049 -1.023448702934237 -1.1692277595953884 1.1937622202567431 1.033628551524415 1.3954483575145289 -1.8842423902272658 1.6550094465192313 1.6119238997214187 -0.9214599942858458 2.0433537719578299 -1.6600438028021378 -2.0545093266374543 -1.2806764160301343 1.0773347403753097 1.039655596921554 -0.98361499891864701 -1.1269070416648461 -1.1685532825721598 0.69175120259476408 1.8983689975569575 -0.34067789589237901 1.673024164231717 -0.593062449593034 -1.5897742957730117 0.91576281271349302 0.83627489778176389 -1.9503007301977424 2.2420601049508422 -1.5477748345023312 2.0493549373114726 1.4398128061247604 -1.4147944158950421 -1.1251519596905746 1.5195419182462071 -1.4309171688967075 -0.92028280860523648
decision_type=2 2 2 2 2 2 2 2 2 2 2 2 2 2 2 2 2 2 2 2 2 2 2 2 2 2 2 2 2 2 2 2 2 2 2 2 2 2 2 2 2 2 2 2 2 2 2 2 2
left_child=1 3 5 12 13 6 16 14 11 27 33 20 39 43 41 26 28 32 45 24 29 -12 31 -9 -15 -20 -11 36 -2 -4 -16 40 35 -8 -25 -7 -6 46 -17 -1 -10 -5 -18 -3 -41 -14 -13 -29 -19
right_child=2 4 8 7 9 17 10 23 22 15 21 37 18 19 30 38 42 48 25 -21 -22 -23 -24 34 -26 -27 -28 47 -30 -31 -32 -33 -34 -35 -36 -37 -38 -39 -40 44 -42 -43 -44 -45 -46 -47 -48 -49 -50
leaf_value=-4.0803339336229412 -1.4927995926993234 -2.1381872508132345 0.20334236583938556 -3.1108038372463653 -1.3373425574013682 0.33870924384002182 -0.30975765640167424 -1.4825670863900866 1.7976790770082862 0.19130556956104458 0.18066090395788423 1.3991799072170936 -3.6695873260498049 -1.812807638828571 -1.5494133869806925 0.94001892655206154 0.0050821180446763287 1.3326778819163643 -2.2306681762481557 0.64845237236689124 1.8358123030597431 1.0481868708274331 4.2086712490428573 -0.33159849779965805 -0.55672425591360131 -1.2550473072135651 0.95206195291663931 -0.53035294293825119 -0.55757031261987966 0.99253982728227563 -0.84324863335854539 2.8764016269165795 1.808345535535079 0.29737967780548269 0.59680476091898882 1.0784657837616074 -0.39173937885171695 2.4209280743318446 1.8798254834367083 -3.5000827789306643 3.1916742382049561 -1.7667912189091479 1.2088649738579988 -0.68269166409969329 -2.33395314293523 -2.3020443194621318 2.2430271245995348 0.42949158731991288 2.406729058730297
leaf_weight=23 105 103 140 27 66 166 289 63 296 654 166 141 24 65 156 169 216 24 116 68 111 498 22 509 453 476 168 28 389 545 589 81 65 368 77 225 345 119 77 32 25 214 32 20 124 74 49 130 78
leaf_count=23 105 103 140 27 66 166 289 63 296 654 166 141 24 65 156 169 216 24 116 68 111 498 22 509 453 476 168 28 389 545 589 81 65 368 77 225 345 119 77 32 25 214 32 20 124 74 49 130 78
internal_value=0 -0.655695 0.766294 -1.20868 -0.0654653 0.333528 0.115388 -0.866482 1.50814 0.248161 0.432932 1.23843 -1.85252 -0.789592 -1.21751 0.551189 -0.449943 1.14002 -1.61534 -0.556201 0.971328 0.831305 2.21105 -0.333176 -0.714341 -1.44622 0.346789 -0.320616 -0.756354 0.831244 -0.991117 2.10172 0.913208 0.0303132 -0.209607 0.7644 -0.543588 1.92648 1.23419 -2.76682 1.90625 -1.91737 0.160409 -1.90152 -2.57316 -2.63695 1.6168 0.259393 2.15401
internal_weight=0 4850 4150 2504 2346 2621 2063 1635 1529 1637 1321 1105 869 709 986 1068 742 558 690 586 796 664 424 649 518 592 822 569 494 685 745 402 456 657 586 391 411 309 246 179 321 241 248 123 156 98 190 158 102
internal_count=9000 4850 4150 2504 2346 2621 2063 1635 1529 1637 1321 1105 869 709 986 1068 742 558 690 586 796 664 424 649 518 592 822 569 494 685 745 402 456 657 586 391 411 309 246 179 321 241 248 123 156 98 190 158 102
is_linear=0
shrinkage=0.05


Tree=20
num_leaves=50
num_cat=0
split_feature=17 21 21 17 17 28 28 28 28 28 21 28 21 28 21 17 21 21 17 21 21 21 21 17 28 21 28 28 17 28 21 28 21 17 17 28 17 17 17 21 17 21 28 28 21 28 28 21 28
split_gain=1.65155e+06 672771 379238 323868 201085 136559 133994 114214 107783 82671.2 70384.9 66659.1 64174.7 63983.6 50546.9 47821.6 46232.4 44492.6 42633 41141.6 40524.7 34917.8 33690.1 33634.3 32874.5 31033.7 28980.2 25586.5 24702.2 23599.6 23486.3 23355.9 23159.7 22518.2 22392.9 22185.7 21504.3 20853.5 19689 18193.3 16607.5 16563.5 15738.3 15553.9 15097.8 13282.1 13071.8 13071.7 12957.4
threshold=-0.40311133421551237 0.31262408157828597 -0.22484914489695945 0.47496901838258715 0.63543745988641909 -0.34067789589237901 0.27301950231947569 0.39031123022335773 0.21973426210849914 0.53304177596714097 -0.96666999257094577 0.20889591295931451 -0.66388564570743602 -1.023448702934237 0.67535798406968173 -1.3673447522938329 -1.1048097764297058 0.78289126150595001 2.0493549373114726 1.25925467081376 -0.63874285912592066 -1.349263565758708 1.5708984760193523 1.5491347916374665 1.3616137360256124 -1.7350699356297177 -1.2461785038604316 -0.67080588964097043 -1.3212326314789273 1.3616137360256124 1.6550094465192313 1.3921245015285935 1.9082032311113977 -1.5085968738468167 1.6168488672791013 -1.4038612201380072 -1.5639428084089906 -2.3142156157900335 -1.3212326314789273 1.8557865850347086 -1.7855142149060546 -2.2898239396887798 1.7108688567387278 1.4642681669007185 -1.349263565758708 -1.1955060464312901 1.7888638407208899 2.0433537719578299 -1.8942554211573579
decision_type=2 2 2 2 2 2 2 2 2 2 2 2 2 2 2 2 2 2 2 2 2 2 2 2 2 2 2 2 2 2 2 2 2 2 2 2 2 2 2 2 2 2 2 2 2 2 2 2 2
left_child=2 3 8 5 9 20 13 12 15 19 41 22 34 36 28 37 -9 38 -14 27 45 -10 26 -18 -12 -17 -6 -3 -15 40 46 33 43 -23 -5 -27 -4 -1 -8 -16 -19 -7 -40 -13 -39 -2 -11 -21 -22
right_child=1 4 6 7 11 10 17 16 21 30 24 32 18 14 39 25 23 29 -20 47 48 31 -24 -25 -26 35 -28 -29 -30 -31 -32 -33 -34 -35 -36 -37 -38 44 42 -41 -42 -43 -44 -45 -46 -47 -48 -49 -50
leaf_value=-4.0557495946469517 -1.8439948931779011 -0.11251449900406317 -2.3341447669884254 -0.37893612989944153 0.49240013470455096 -2.0226386256839919 -0.84277973306529663 0.28061646553435071 -1.8815920646237858 1.134352926821659 0.018941408062303922 2.0157712244626249 0.4627198513804518 -1.4675465973647865 -0.28276899018793561 -2.7830104964120048 1.1389029866873057 -0.95551900375973098 2.0202324035319879 0.89344221979223626 -1.5778067465751402 -1.868548308152419 2.374944124493418 2.1893869098864105 0.81637346613910289 -2.4799947647821337 1.4483651883666775 0.53795019116285248 -0.69296618547654276 1.5010602516787392 2.4568376375281296 -0.10051540845916385 3.8209585521532143 -0.83411451404833281 0.5340390795325658 -1.47486843594134 -1.2476363282299268 -3.3704405837588838 -0.16066491699556967 0.78238305368501215 0.49933706940928713 -0.62567713760573718 1.0050889790058137 2.920048023092336 -2.2240260261884877 -1.1393910161021983 2.121193757810091 1.8242482357836787 -0.51089316875236357
leaf_weight=23 101 232 58 352 98 23 102 129 101 287 804 264 674 148 312 63 385 22 47 191 31 65 79 95 154 63 415 434 338 56 46 84 23 276 83 427 212 36 304 46 181 274 32 58 142 198 38 47 347
leaf_count=23 101 232 58 352 98 23 102 129 101 287 804 264 674 148 312 63 385 22 47 191 31 65 79 95 154 63 415 434 338 56 46 84 23 276 83 427 212 36 304 46 181 274 32 58 142 198 38 47 347
internal_value=0 0.489877 -0.936487 0.0771956 1.17961 -0.370104 -0.470877 0.566817 -1.59525 0.770928 -0.0613592 1.73571 0.274882 -0.811071 -0.596746 -1.97847 1.12097 0.0728481 0.56425 0.513002 -0.942444 -1.04592 1.41376 1.34681 0.14713 -1.73841 1.26574 0.311362 -0.928847 0.592347 1.3994 -0.847328 2.28814 -1.03129 -0.204736 -1.6041 -1.48103 -2.63895 -0.234344 -0.145906 0.341668 -0.733859 -0.0496407 2.17865 -2.45589 -1.3774 1.24974 1.07726 -0.598391
internal_weight=0 5909 3091 3697 2212 1932 1811 1765 1280 1275 1255 937 1156 1114 844 754 609 697 721 904 677 526 592 480 958 553 513 666 486 259 371 425 345 341 435 490 270 201 438 358 203 297 336 322 178 299 325 238 378
internal_count=9000 5909 3091 3697 2212 1932 1811 1765 1280 1275 1255 937 1156 1114 844 754 609 697 721 904 677 526 592 480 958 553 513 666 486 259 371 425 345 341 435 490 270 201 438 358 203 297 336 322 178 299 325 238 378
is_linear=0
shrinkage=0.05


Tree=21
num_leaves=50
num_cat=0
split_feature=17 21 21 17 17 28 28 28 21 21 28 17 28 28 17 21 17 21 28 21 21 17 17 28 28 21 21 28 21 21 21 21 28 17 21 28 21 28 28 28 28 21 21 28 28 17 21 21 28
split_gain=1.49392e+06 596081 366588 294934 148799 127732 117146 117070 77894.8 73446 73358.4 68589.2 64574.2 61975.7 61842.8 48387 41576.6 39917.5 39080 38929.9 36972.9 36859.9 35132.4 30592 30589.9 27536 25512.6 25155.2 24552 24423.5 23820.7 22885.3 21499.7 20697.6 21018.5 18361.6 17689.2 16675.1 16310 16035.3 14941.9 12913.5 12697.3 12500.8 12415.3 11602.5 10634.8 9984.63 9353.88
threshold=0.30591909848297455 -0.47065886486244374 -0.33855486396151407 -0.57548372977139406 -0.59714384554131039 -0.11328775536866802 -0.47839456855291945 0.63363502803068894 0.6544414852187207 0.54845389727319227 0.062566601496658603 1.2510040154540409 -0.98361499891864701 0.16392941370638384 1.6853708254092996 0.66560155421832856 -1.3915354836916667 0.71226702616781912 0.89519915479205869 0.92655177364973307 0.8842579858544749 1.4701691841505113 1.4701691841505113 -0.55871952612942588 1.1890151185684088 -1.8263654205255297 1.9713491319383891 -1.8942554211573579 -1.8774823477427873 -1.4776457859091678 -2.0861577088913497 -1.7350699356297177 1.5195419182462071 2.3482956583575767 0.80278923575997974 -1.2288130348171473 1.8557865850347086 1.673024164231717 -1.4748518661896617 -1.1067258967535285 1.0013783601850685 1.2852966032260482 -1.2806764160301343 1.6431937167911304 1.0773347403753097 -1.2599566607534938 -1.349263565758708 -1.7350699356297177 -1.8270990561078129
decision_type=2 2 2 2 2 2 2 2 2 2 2 2 2 2 2 2 2 2 2 2 2 2 2 2 2 2 2 2 2 2 2 2 2 2 2 2 2 2 2 2 2 2 2 2 2 2 2 2 2
left_child=1 4 10 6 12 14 20 9 16 23 21 17 48 31 15 35 -8 32 25 43 27 29 28 -5 -10 -14 -11 -3 -12 -2 -15 -6 -7 34 -13 -4 -17 -19 -31 -33 -30 -16 -23 -9 -32 -22 -20 -24 -1
right_child=2 3 5 7 13 11 8 19 24 26 22 33 18 30 41 36 -18 37 46 -21 45 42 47 -25 -26 -27 -28 -29 40 38 44 39 -34 -35 -36 -37 -38 -39 -40 -41 -42 -43 -44 -45 -46 -47 -48 -49 -50
leaf_value=-3.5175926208496096 -1.16839049093509 -2.6227265596389771 -0.13452729851649756 -0.65220419619110459 -2.0327011959420314 0.94114816110011223 -1.225004827769804 0.49734033623522306 -0.016468829257394544 0.3358631435795687 -0.68083381103534324 1.7959604924687973 -2.735919444744404 -1.8603175951884343 1.5437558258955297 0.97305223856201783 -0.42005370151996613 1.6834874805282145 -1.6863856188712583 1.6237238875009063 -1.1493696317590516 -0.44567137935331891 0.31730865120887758 -0.036764894547458009 1.1056931283738878 -1.6386483383680646 1.5224409872171831 -1.3532550694242769 0.28067677300913552 -1.0461502790973898 -0.49410095083489192 -1.6073349395645 1.8502172263045062 3.6027737299601235 2.6935935150949581 0.52928307390142537 2.0875335878133776 3.0328471755981448 -0.13803965167864038 -0.90648356384576056 0.90493350126913619 2.7212723382314046 0.74691663743758752 1.1599105008151178 0.09645331433056889 -0.25880695173535684 -0.64753897648304704 1.5476045973757482 -2.544137418535021
leaf_weight=34 89 44 145 336 72 451 231 327 388 600 51 208 65 26 104 324 525 272 31 133 58 28 20 506 72 475 49 345 304 57 269 107 76 24 95 370 40 25 373 344 140 30 110 91 133 99 120 94 90
leaf_count=34 89 44 145 336 72 451 231 327 388 600 51 208 65 26 104 324 525 272 31 133 58 28 20 506 72 475 49 345 304 57 269 107 76 24 95 370 40 25 373 344 140 30 110 91 133 99 120 94 90
internal_value=0 -0.505512 0.820904 -0.153084 -1.26465 1.21627 -0.627039 0.255882 -0.353852 0.025737 0.145095 1.57665 -1.76042 -0.839772 0.806799 0.654265 -0.666011 1.3335 -1.57189 0.878652 -1.23545 -0.221346 0.540419 -0.282356 0.159174 -1.77073 0.425451 -1.49685 0.35817 -0.414463 -0.393582 -1.20491 1.07225 2.18935 2.0774 0.342385 1.09552 1.79707 -0.258417 -1.07276 0.477514 1.80738 0.504942 0.641584 -0.298719 -0.587805 -0.860812 1.33176 -2.81105
internal_weight=0 5570 3430 3804 1766 2164 1762 2042 1216 1491 1266 1151 815 951 1013 879 756 824 691 551 546 657 609 842 460 540 649 389 495 519 428 523 527 327 303 515 364 297 430 451 444 134 138 418 402 157 151 114 124
internal_count=9000 5570 3430 3804 1766 2164 1762 2042 1216 1491 1266 1151 815 951 1013 879 756 824 691 551 546 657 609 842 460 540 649 389 495 519 428 523 527 327 303 515 364 297 430 451 444 134 138 418 402 157 151 114 124
is_linear=0
shrinkage=0.05


Tree=22
num_leaves=50
num_cat=0
split_feature=17 21 21 17 17 28 17 17 28 28 28 28 21 21 21 28 17 28 21 21 21 28 17 21 28 21 21 28 21 28 28 28 28 28 17 21 17 28 28 28 21 28 21 21 21 17 21 28 28
split_gain=1.35421e+06 450695 430439 188052 165919 133648 122327 103845 80907.6 72115.7 70128.2 66937.2 66655.4 55623.5 52905.6 46315.1 40473.4 39475.1 38671.8 37642.9 37028.6 35104.4 33547.4 31340.3 29312.5 28183.6 27794.6 25750.8 25022.9 22682.8 21300.1 20514.2 19758.2 19621.9 19593.8 19508.7 18802.4 16632.5 16424.2 16227.2 16174.9 13449.8 13217.2 11934.5 11311.1 10264.6 9157.86 9003.04 8221.8
threshold=-0.040461276895589336 -0.25231197471218497 0.38642549372735735 -1.2203048883807346 0.75636487324066326 -0.18255434910512328 1.0024396231124737 -1.086272687156429 -0.054205934627004862 0.86637679269510393 0.38159048222745912 -0.53156928610731902 -0.7319118944775227 -1.0816366204509351 0.95614992104520613 0.70372205909030949 -2.4469986735370681 -1.0500200418190362 0.91576281271349302 1.7474947839438146 -1.3893836335433576 -0.93747452429863565 2.0493549373114726 -0.96666999257094577 -0.87069901312744269 1.2346082243553471 1.7000786412940683 1.0773347403753097 -1.6210983009266611 -2.0227939593308597 1.5195419182462071 1.5447294271825716 1.8983689975569575 -0.85701326023079238 1.6464065836633937 -1.7774280150153181 -2.3142156157900335 -1.613804880819506 -1.4502547105437162 1.0773347403753097 -2.1686130076350403 0.89519915479205869 1.1194804201562145 -0.78343232093703696 -2.0069000722495263 1.7764905468211893 1.25925467081376 -1.4309171688967075 1.0585393637778808
decision_type=2 2 2 2 2 2 2 2 2 2 2 2 2 2 2 2 2 2 2 2 2 2 2 2 2 2 2 2 2 2 2 2 2 2 2 2 2 2 2 2 2 2 2 2 2 2 2 2 2
left_child=2 6 3 15 8 13 10 19 25 14 20 38 31 40 21 16 -1 -8 30 24 44 -6 28 -18 -4 37 39 -14 -19 -15 -10 -7 35 -22 -16 -12 -26 -3 -9 -13 -5 -20 45 -17 -2 -11 -40 -27 -45
right_child=1 4 7 5 9 12 17 11 18 42 32 26 27 29 34 43 23 22 41 -21 33 -23 -24 -25 36 47 -28 -29 -30 -31 -32 -33 -34 -35 -36 -37 -38 -39 46 -41 -42 -43 -44 48 -46 -47 -48 -49 -50
